34 128
34 -0.06227729 0.158046 0.13067813 -0.07584988 -0.11673425 0.016425107 -0.057803903 0.038187083 -0.17303452 0.07905383 -0.14810683 0.20925006 -0.0025324125 0.10480959 -0.052923232 0.11189581 -0.09749691 0.0014861792 -0.06941799 -0.112762764 -0.05297834 0.07692517 0.1008067 0.038751125 -0.09657052 -0.07030181 0.002176182 0.029995002 0.05102176 -0.114353046 -0.107117325 0.09692448 0.0997794 -0.060628552 0.029046912 -0.013368304 -0.03168389 0.041383754 -0.040474422 -0.051074628 -0.04057811 -0.11889921 -0.09003779 0.000730601 -0.082295835 -0.057668578 -0.15417181 0.01332275 -0.20328593 -0.1103371 -0.074496955 -0.015397989 -0.06674325 -0.12928322 0.103091635 0.05579642 0.011033474 0.04980987 -0.12511513 -0.02742945 -0.045539763 0.0841438 0.14898005 0.006859126 -0.14902233 -0.053631026 -0.08981213 0.06700351 -0.042652387 0.014684384 0.0010102866 0.086346 0.14279522 -0.030808916 -0.17796598 0.20497379 -0.25870666 0.08212181 -0.1097969 0.20591931 0.09040294 0.073874556 -0.011710862 -0.0648205 0.010711206 -0.10602121 -0.15013176 0.07842705 0.1256976 -0.12071426 0.2605399 0.11876744 0.15554161 -0.06330789 0.049948934 -0.16962618 -0.14078437 -0.03538605 -0.06447957 0.11726319 -0.012241366 -0.20909584 -0.11501646 -0.16230981 -0.11307103 0.026093947 0.072734706 0.17625256 -0.06654445 -0.1648629 0.07724924 0.086527474 -0.0878107 0.044909436 -0.096071035 -0.0424689 0.023807477 -0.033434775 0.011689473 0.14916135 -0.083190605 -0.05354537 0.20187145 0.14183277 0.12112581 -0.21055417 -0.13048151 0.12272723
1 -0.02402684 -0.014192987 0.05016528 -0.121775955 -0.13067392 -0.018096453 -0.005973775 0.04297541 -0.035859644 0.06383424 -0.19523583 0.18747564 -0.0443715 0.19686905 -0.029282445 0.12109458 0.00842548 0.06335722 -0.042927977 -0.04555967 0.0039365473 0.18970035 0.13496083 -0.0058738003 -0.12373601 -0.10361058 0.033114713 0.0012993431 0.16559057 -0.10582388 -0.04905503 0.057691578 0.0974564 -0.011857846 -0.013721844 -0.0024612576 -0.10055526 0.024985902 -0.13131288 -0.08227727 -0.0248449 -0.23500985 -0.0539559 0.014108586 -0.10017634 -0.080524005 -0.027714934 -0.06955013 -0.2874698 -0.1655115 -0.19756459 0.08828731 0.0009859491 -0.12160415 0.055979047 0.05727833 0.02322558 0.03965162 -0.099756554 -0.0671005 -0.13098575 0.07283977 0.13781346 0.03798273 -0.16126244 -0.08414347 -0.13564788 -0.0043883706 -0.11237076 -0.11406403 0.059861045 0.071948014 0.10654927 -0.09500988 -0.11257114 0.2293738 -0.35733432 0.08583693 -0.11765001 0.16600929 0.07676007 0.15842302 -0.026800098 -0.02827306 0.04971025 -0.109139636 -0.14159179 0.009123566 0.04516587 -0.16302486 0.23123977 0.08233194 0.07515346 -0.014705481 0.081100196 -0.11941868 -0.16517945 -0.027261838 -0.089062296 0.15872197 -0.109934956 -0.13884377 -0.27451828 -0.09141259 -0.11337946 -0.068618976 0.011094286 0.25065306 -0.12643851 -0.071501344 0.07024356 0.05895919 -0.046593316 0.08941023 -0.1060562 -0.07654861 0.011528665 -0.1910138 -0.03240415 0.06063282 -0.13606262 -0.032787014 0.13441463 0.13547039 -0.008963095 -0.2761745 -0.10755409 0.07405974
33 -0.121608205 0.35960215 0.2338953 -0.0728025 -0.1096665 0.052841015 -0.10384729 0.040059257 -0.30220422 0.097741365 -0.116120405 0.2440288 0.025222288 0.0426989 -0.06615487 0.10801919 -0.18111452 -0.04447388 -0.07978928 -0.16512337 -0.08720578 -0.009936678 0.08813967 0.05918637 -0.073883764 -0.032025628 -0.032762438 0.052447703 -0.046521608 -0.11858905 -0.16890581 0.13755547 0.12213048 -0.11165298 0.058139306 -0.024570744 0.024038823 0.07058594 0.037510533 -0.032430157 -0.05525579 -0.038886677 -0.13909157 -0.0071678697 -0.080193736 -0.033101883 -0.28612643 0.072915986 -0.1334393 -0.064572886 0.027730359 -0.10659725 -0.14020209 -0.14601175 0.16303805 0.07689462 -0.0009414311 0.066676706 -0.1668066 0.008837574 0.014602967 0.104434386 0.16127746 -0.016009776 -0.16365674 -0.050238665 -0.05510477 0.11982276 0.0146054 0.13454865 -0.048327148 0.100361355 0.17994438 -0.0025936372 -0.23985164 0.20327573 -0.18257685 0.072267815 -0.09585021 0.23561953 0.11767158 0.011457807 0.020527532 -0.10908397 -0.014188951 -0.1091398 -0.15356746 0.14258108 0.21131645 -0.07992621 0.29218873 0.16154207 0.23004068 -0.12485456 0.0058404347 -0.20936915 -0.12290866 -0.053054843 -0.034072865 0.08399244 0.056468926 -0.2697069 0.011997427 -0.21277261 -0.10581031 0.12276936 0.13066055 0.10460147 -0.030479781 -0.24388218 0.06905468 0.11473581 -0.12297076 0.020688746 -0.10019431 -0.008553845 0.035182174 0.0862921 0.07069058 0.22192518 -0.03572873 -0.09034546 0.25401402 0.16125013 0.24064958 -0.1605508 -0.14831902 0.16208877
3 -0.056036524 0.075485915 0.097466014 -0.10507635 -0.120804705 0.00036712416 -0.026979918 0.03929136 -0.10587156 0.06568701 -0.16357416 0.20550725 -0.029425057 0.14642064 -0.03922624 0.11468158 -0.04188617 0.037110712 -0.058506154 -0.07154638 -0.027303161 0.12871772 0.120434135 0.009111973 -0.102364585 -0.08184789 0.009662263 0.012422306 0.10488127 -0.10509811 -0.07850921 0.08053481 0.09457275 -0.032570917 0.01299281 -0.002871938 -0.066026255 0.032866947 -0.07869725 -0.06340787 -0.019839497 -0.18297224 -0.07556213 0.0043906653 -0.088375114 -0.061325233 -0.090098195 -0.030978631 -0.23447731 -0.12692855 -0.13866176 0.043466713 -0.03662167 -0.11803176 0.07613073 0.051686745 0.020919375 0.04037693 -0.10615143 -0.050385557 -0.085019484 0.076797985 0.14000766 0.019430742 -0.1457128 -0.06614107 -0.11424493 0.032896493 -0.074867845 -0.054768894 0.03524792 0.075951666 0.117882326 -0.06400291 -0.14189555 0.21557185 -0.3003079 0.08248508 -0.10278216 0.17366566 0.083343446 0.117443554 -0.012436088 -0.049005073 0.027295295 -0.10182508 -0.14144245 0.045455787 0.08266298 -0.14654279 0.23210713 0.09877343 0.11453366 -0.04042768 0.057945352 -0.14504756 -0.14745504 -0.034411322 -0.0789867 0.13088533 -0.06275961 -0.16073377 -0.19533719 -0.121482626 -0.09562072 -0.01506983 0.028994834 0.19611044 -0.095232844 -0.1074785 0.07301673 0.060892314 -0.064873666 0.066827506 -0.10146838 -0.052119337 0.009800979 -0.113446884 -0.008071082 0.10098591 -0.111504056 -0.0429021 0.15335977 0.13346173 0.053238 -0.2339732 -0.11216573 0.09464648
2 -0.04669277 0.066820905 0.085852675 -0.095413975 -0.12394255 -0.0018472883 -0.023721594 0.04485972 -0.10447956 0.065700255 -0.15888584 0.20453967 -0.030843303 0.14358369 -0.045586757 0.10962035 -0.049501374 0.039522655 -0.055483434 -0.06936595 -0.029571556 0.13342214 0.11225412 0.019966444 -0.10087422 -0.06989487 0.0025842437 0.018977134 0.10180732 -0.10744191 -0.0698913 0.07453483 0.09788859 -0.03905088 0.014938066 -0.0051531536 -0.06456887 0.031184314 -0.078084946 -0.061074678 -0.012577092 -0.1784164 -0.07301587 0.0023376718 -0.07341237 -0.064899154 -0.08330272 -0.03591471 -0.22522506 -0.12810616 -0.1317248 0.042168945 -0.037435025 -0.113815136 0.08192554 0.046953626 0.015490901 0.034478113 -0.10212524 -0.0509668 -0.08890598 0.077143244 0.14132966 0.0210575 -0.1385259 -0.062405165 -0.10883038 0.031584155 -0.07260056 -0.04266692 0.043985076 0.081797756 0.10908312 -0.064010225 -0.1353225 0.2118025 -0.29328585 0.0800218 -0.100762956 0.17308934 0.083390385 0.11286616 -0.009975026 -0.05107526 0.028618561 -0.096030764 -0.14255346 0.04800699 0.0844943 -0.14537127 0.22628725 0.10298281 0.10791916 -0.042803437 0.05832001 -0.14287095 -0.14357972 -0.042637464 -0.08962254 0.1303576 -0.05586422 -0.15990348 -0.18726629 -0.121682435 -0.09245026 -0.010695494 0.03172683 0.19426416 -0.09625209 -0.11180853 0.073942274 0.05859772 -0.06688314 0.060685396 -0.09425757 -0.048137084 0.0067229588 -0.10772022 -0.0055284523 0.100630485 -0.10601591 -0.050087158 0.1531889 0.13378897 0.050022796 -0.22361231 -0.11308644 0.08943764
4 -0.04706098 0.0548952 0.08576484 -0.102013424 -0.13050354 -0.0069110286 -0.023952385 0.042841557 -0.099103324 0.067260794 -0.17464021 0.2061355 -0.030337963 0.15650937 -0.045248017 0.1189277 -0.04063107 0.0414307 -0.0556196 -0.07355237 -0.023951538 0.14325145 0.12082865 0.015459623 -0.11023454 -0.08614263 0.01413538 0.014130003 0.11345492 -0.11123241 -0.07712047 0.07214145 0.09729271 -0.03488288 0.006549651 -0.008987624 -0.07732856 0.029473683 -0.0893262 -0.068718605 -0.023072278 -0.18987429 -0.07267534 0.0061195474 -0.082782455 -0.068239585 -0.07484554 -0.034484874 -0.24618591 -0.14065655 -0.14631565 0.052049406 -0.026436461 -0.12248355 0.08006655 0.053307626 0.021051988 0.03701906 -0.1018774 -0.05576225 -0.09674205 0.07542329 0.14335056 0.02477118 -0.15342529 -0.06519425 -0.120594114 0.029144516 -0.08179988 -0.06106646 0.04154288 0.07913223 0.111959234 -0.061363734 -0.14196809 0.2223789 -0.31471744 0.08503364 -0.11066503 0.18276624 0.079613015 0.123335615 -0.022265797 -0.044101395 0.037935305 -0.10252768 -0.14583857 0.04123832 0.08142866 -0.1509048 0.23155491 0.09524917 0.11004375 -0.037962288 0.06885455 -0.1459998 -0.15377606 -0.035386845 -0.088705346 0.13588408 -0.06933146 -0.1622627 -0.20712093 -0.12355876 -0.10931439 -0.026241159 0.030943982 0.21330765 -0.10044261 -0.11142966 0.07464279 0.06883662 -0.06718419 0.0653087 -0.10218911 -0.054120958 0.012729485 -0.119787276 -0.013852452 0.09413027 -0.112736605 -0.042828403 0.16261101 0.13636884 0.044869687 -0.24166742 -0.110540494 0.09305021
32 -0.08782386 0.22933015 0.16622382 -0.08012335 -0.118139006 0.029009428 -0.07689448 0.044132233 -0.21497542 0.08127742 -0.13721526 0.22642422 0.0103210425 0.07671829 -0.05738902 0.10920513 -0.11734664 -0.020670854 -0.072765455 -0.12968348 -0.061327036 0.04538005 0.088423334 0.03315229 -0.09463564 -0.059011023 -0.0067154667 0.026542434 0.013877007 -0.119281135 -0.12948234 0.112062596 0.11140977 -0.07885835 0.03675334 -0.012987643 -0.01965134 0.055537406 -0.01495435 -0.041571245 -0.03944512 -0.09653872 -0.10946093 -0.0010659227 -0.083979905 -0.05105156 -0.19831395 0.03668279 -0.17251682 -0.091963 -0.04482137 -0.04193514 -0.08820154 -0.12572724 0.11864462 0.06229063 0.000118566226 0.05129478 -0.12797418 -0.016588403 -0.02228289 0.09146586 0.1548276 0.00300723 -0.15485033 -0.057383563 -0.07821243 0.08410356 -0.016423417 0.045582313 -0.016301772 0.08173784 0.1515198 -0.017923182 -0.19523278 0.19232628 -0.22558951 0.07750776 -0.09697269 0.2117671 0.095374346 0.05216907 -0.003722676 -0.078154504 0.008213554 -0.102412164 -0.14246358 0.08479825 0.15318553 -0.10830398 0.26600358 0.11817686 0.17968415 -0.08360058 0.029187707 -0.17504498 -0.1303714 -0.040908873 -0.0507589 0.09690953 0.012264978 -0.21870871 -0.07346321 -0.17222795 -0.10168656 0.055029757 0.07970733 0.15092294 -0.059786227 -0.17917363 0.07755996 0.09343057 -0.09494017 0.036770217 -0.095996745 -0.035146132 0.025914202 0.0017577694 0.03026374 0.17070761 -0.07004013 -0.064902686 0.21428502 0.13398841 0.15544756 -0.19271417 -0.13313547 0.13281588
14 -0.05979724 0.11405939 0.112545155 -0.09500588 -0.12258391 0.01108064 -0.04069998 0.041701134 -0.14327508 0.07283316 -0.15274084 0.20740502 -0.015639143 0.12227713 -0.049698412 0.10722216 -0.06577617 0.021898653 -0.060957506 -0.085238636 -0.03750804 0.10188713 0.10926472 0.021213189 -0.09578173 -0.0668 0.0017932144 0.018517496 0.078425266 -0.106334776 -0.08806 0.087688856 0.103309564 -0.05020028 0.017655166 -0.0063733505 -0.048943114 0.040944204 -0.06064221 -0.061043367 -0.030253006 -0.14719804 -0.08618268 0.0016963261 -0.07725822 -0.056867544 -0.11795568 -0.010240948 -0.20749216 -0.11442205 -0.10237053 0.013327489 -0.051840913 -0.12129818 0.09269908 0.053791627 0.009647926 0.039546445 -0.11337798 -0.036960848 -0.0654257 0.07628989 0.14275768 0.015553858 -0.14694268 -0.060175348 -0.10127263 0.044174995 -0.05811958 -0.015159361 0.021517538 0.07894645 0.12180991 -0.053041402 -0.15716185 0.2055215 -0.27128756 0.07832105 -0.10373601 0.1873813 0.088668354 0.097175956 -0.012180998 -0.059051678 0.021348035 -0.09774675 -0.14323 0.057700314 0.10732916 -0.13273086 0.23984864 0.10758408 0.13151063 -0.05368858 0.050398685 -0.15282805 -0.13879287 -0.03896968 -0.07637671 0.117263496 -0.038983148 -0.1780851 -0.14926663 -0.13290873 -0.09985916 0.004977375 0.050513968 0.1833588 -0.08543089 -0.13679408 0.07026875 0.07354718 -0.077103585 0.052514028 -0.09291186 -0.04763135 0.014120309 -0.06844472 0.0064824694 0.12205021 -0.09279918 -0.05243214 0.17200229 0.13577792 0.07858262 -0.21484372 -0.11532533 0.10458194
24 -0.092779614 0.25738394 0.17919475 -0.07665844 -0.114007995 0.03659229 -0.08413012 0.042968042 -0.22876745 0.085998125 -0.13166769 0.22578467 0.012352439 0.06879424 -0.06033654 0.10230436 -0.13290644 -0.028255299 -0.07208884 -0.13433275 -0.06720951 0.032016248 0.08842818 0.044967424 -0.091904454 -0.050594073 -0.0154364435 0.036284383 0.0036193253 -0.121947855 -0.13612285 0.12081726 0.1134912 -0.08137202 0.03878371 -0.014167201 -0.011473579 0.057320114 -0.0010078053 -0.043626387 -0.04967251 -0.08636695 -0.11403451 -0.0055973646 -0.07922762 -0.044441644 -0.20975688 0.04537947 -0.16812563 -0.08739294 -0.028221808 -0.056519143 -0.10001964 -0.13360262 0.12888218 0.06790587 -0.0013929856 0.059353963 -0.13918568 -0.015118071 -0.017079845 0.08907811 0.15650298 -0.0036641816 -0.15053242 -0.049795512 -0.07104647 0.08967396 -0.013212402 0.06613719 -0.019263621 0.08645873 0.15197039 -0.017745152 -0.20322236 0.19938213 -0.2208809 0.07661454 -0.10220423 0.21074158 0.09613896 0.0434672 0.0020191898 -0.08273848 -0.00196038 -0.107479975 -0.14131944 0.09887705 0.16128917 -0.0990186 0.27082264 0.12679572 0.18660006 -0.093783915 0.028815527 -0.17814653 -0.1269625 -0.038293727 -0.048545107 0.09989578 0.019604228 -0.23232228 -0.056863148 -0.1770569 -0.10425241 0.06459114 0.092700064 0.14630514 -0.047771778 -0.1973053 0.07245881 0.093528956 -0.10279122 0.03520686 -0.10028912 -0.031629268 0.023456408 0.017734889 0.040705357 0.17878151 -0.06252065 -0.070046395 0.22188166 0.14578676 0.16683981 -0.18434735 -0.13456245 0.1318967
8 -0.039892476 0.02409879 0.06584266 -0.111364804 -0.13114539 -0.012746901 -0.017080937 0.04168867 -0.07478127 0.06864589 -0.18767126 0.20630659 -0.036065906 0.17472932 -0.034478433 0.12482719 -0.022581747 0.048617903 -0.05295031 -0.06735812 -0.013158642 0.16643494 0.12858634 0.007960416 -0.116599455 -0.09220398 0.021770153 0.007148236 0.1398957 -0.10963844 -0.06892539 0.071543545 0.098838866 -0.028017305 0.0005203402 -0.0040275245 -0.088175185 0.031080713 -0.10552396 -0.07584197 -0.021741966 -0.21512316 -0.067557834 0.007925451 -0.0950409 -0.07075412 -0.060208965 -0.05195099 -0.2705384 -0.15147698 -0.17042738 0.06462732 -0.020102583 -0.12003127 0.07545684 0.058981042 0.022577683 0.037187003 -0.10794069 -0.05970407 -0.11026819 0.0747939 0.14551356 0.02576146 -0.15743978 -0.076201186 -0.1315024 0.018435081 -0.095943294 -0.08484325 0.051776968 0.07992342 0.11744338 -0.08054165 -0.13344945 0.23307098 -0.34218392 0.09205724 -0.11388133 0.17905444 0.08036285 0.13771433 -0.026223276 -0.04263642 0.038747843 -0.10598607 -0.14510113 0.025591183 0.075567275 -0.16349746 0.2388718 0.09460901 0.10318882 -0.031850666 0.0752069 -0.13809341 -0.16480492 -0.037194133 -0.09167701 0.15034774 -0.08463219 -0.15800357 -0.24210581 -0.111568764 -0.11357451 -0.041862275 0.019237114 0.23061979 -0.10970495 -0.09460562 0.07747274 0.06059175 -0.0565148 0.076933354 -0.10386157 -0.069716185 0.012243135 -0.15192986 -0.019096674 0.08667302 -0.13026325 -0.036650352 0.15402997 0.1419587 0.020461172 -0.2610217 -0.113326095 0.09184064
7 0.004908631 -0.11045816 -0.007691258 -0.13648655 -0.13807783 -0.04030971 0.017897157 0.042357787 0.03360536 0.06482569 -0.23110731 0.1773646 -0.05002992 0.24382241 -0.012793258 0.13703232 0.060565818 0.0851738 -0.036501184 -0.029029747 0.035926145 0.23963217 0.15838695 -0.017718745 -0.14945279 -0.13234708 0.058376797 -0.014663459 0.2286388 -0.10190646 -0.028622555 0.03622335 0.08304819 0.01526888 -0.038290817 0.00405326 -0.13901614 0.008721344 -0.18104872 -0.10083328 -0.033748448 -0.28214267 -0.034672644 0.031049665 -0.11559108 -0.090004206 0.040497158 -0.10345309 -0.3474847 -0.19500019 -0.25545958 0.13783859 0.047085322 -0.12428151 0.038794905 0.06319022 0.03574397 0.037911646 -0.091524586 -0.07439089 -0.16943519 0.06161928 0.13616547 0.05077832 -0.16997798 -0.09783473 -0.16396128 -0.03996795 -0.14131266 -0.18605071 0.08016573 0.06158569 0.10009245 -0.11890275 -0.0760328 0.23691015 -0.4153934 0.09484511 -0.1304707 0.16473638 0.06340007 0.19665736 -0.051777296 -0.005004476 0.074049175 -0.11099352 -0.1344006 -0.029084329 0.011214059 -0.18173617 0.22189866 0.05699235 0.035986472 0.022051053 0.09966048 -0.09267139 -0.18375339 -0.014614113 -0.09307774 0.18282631 -0.15517585 -0.11952606 -0.35082182 -0.067926064 -0.13280675 -0.12169386 -0.012244026 0.29757822 -0.14475441 -0.038478937 0.07142147 0.053375907 -0.02042414 0.10613699 -0.11664368 -0.10098945 0.010323918 -0.2650411 -0.06117479 0.024211211 -0.17358045 -0.008489898 0.109305695 0.13503294 -0.071100965 -0.3208983 -0.09710054 0.062804095
28 -0.08364354 0.2202344 0.15964372 -0.069288865 -0.112219 0.03273904 -0.07177728 0.041271467 -0.2087404 0.075556345 -0.11976831 0.21263205 0.010216377 0.06605661 -0.056905642 0.09312326 -0.11674206 -0.015134247 -0.06560372 -0.122263275 -0.063805655 0.041276082 0.08778922 0.039360143 -0.07788969 -0.04823918 -0.016109858 0.034620494 0.008742306 -0.11146368 -0.12052609 0.10238862 0.101165235 -0.0733124 0.03498853 -0.011271594 -0.009622736 0.04885974 -0.007901757 -0.043691248 -0.03908741 -0.082672656 -0.100898854 -0.0082386695 -0.07350749 -0.043902807 -0.18889596 0.038580414 -0.1573484 -0.08429131 -0.031835593 -0.043434545 -0.084256895 -0.11863484 0.1177829 0.058161978 0.0025528397 0.049343247 -0.12269022 -0.015053162 -0.024474157 0.078584924 0.14272456 -0.0046404023 -0.1419713 -0.0434061 -0.06679187 0.07530635 -0.017713837 0.049520396 -0.009063362 0.08212338 0.13661586 -0.019248657 -0.18538754 0.18504316 -0.20673327 0.06823949 -0.0884778 0.19497256 0.09102475 0.041864425 0.002086113 -0.07233599 0.0027742612 -0.094106935 -0.13820349 0.08519388 0.1446303 -0.100867644 0.24254604 0.12089919 0.169138 -0.07876652 0.029811123 -0.16821918 -0.120508365 -0.04226718 -0.04597523 0.094436765 0.013155416 -0.20888032 -0.0663849 -0.16085064 -0.08914233 0.059538286 0.08178845 0.1301437 -0.053667597 -0.17436929 0.068363436 0.08723351 -0.08886273 0.031817067 -0.08664491 -0.027901325 0.023941848 0.0071397554 0.032166854 0.15708391 -0.06323379 -0.06569296 0.19902337 0.13049224 0.14687489 -0.17166941 -0.12554412 0.12175571
6 -0.0024922332 -0.099552326 -0.004425379 -0.12875539 -0.13661158 -0.030951776 0.013385711 0.039265517 0.02495359 0.05938767 -0.21739583 0.17174496 -0.048135404 0.2314706 -0.013990347 0.12836762 0.05132603 0.08264555 -0.034996703 -0.027808614 0.026258335 0.22504942 0.14364478 -0.014610754 -0.14040543 -0.12023019 0.053782918 -0.011322225 0.2136721 -0.10471007 -0.027665969 0.03870254 0.085818745 0.015178284 -0.029592037 0.0043877577 -0.1335988 0.014358763 -0.16865873 -0.09229399 -0.027225165 -0.27613723 -0.043529652 0.019615782 -0.108808875 -0.08992154 0.028887969 -0.08972594 -0.33179766 -0.18820807 -0.24368256 0.1345316 0.036999606 -0.121533334 0.038069103 0.057283755 0.029621096 0.040276654 -0.08992526 -0.079621546 -0.15876332 0.06058337 0.13310525 0.052117005 -0.16323192 -0.09296718 -0.15477197 -0.03444819 -0.13528717 -0.17191467 0.07540024 0.06296075 0.09354514 -0.10752922 -0.08552286 0.23112185 -0.40132746 0.09094315 -0.12661232 0.16116938 0.06510169 0.19414003 -0.042330585 -0.010544734 0.070742756 -0.113312036 -0.13380395 -0.02086575 0.0126757845 -0.18331976 0.22191817 0.057886768 0.04606696 0.014221804 0.10175924 -0.09681063 -0.17362809 -0.019073177 -0.10061933 0.17194495 -0.14231457 -0.1225328 -0.33239865 -0.06751035 -0.12712835 -0.107329905 -0.013216862 0.28614652 -0.14281388 -0.039769206 0.07131973 0.049779486 -0.025830202 0.100103594 -0.11523407 -0.092052385 0.010139418 -0.25257778 -0.059090305 0.0298049 -0.16564046 -0.017266208 0.113377176 0.12939739 -0.060595192 -0.3099655 -0.098524556 0.06181292
30 -0.101035245 0.2908914 0.19209936 -0.066181056 -0.118506595 0.039316278 -0.09189113 0.038763616 -0.2677582 0.08940461 -0.12536283 0.23180348 0.024078803 0.0512356 -0.0635037 0.10819595 -0.15445974 -0.03789002 -0.07471141 -0.15118323 -0.076212965 0.013093581 0.0857617 0.054889727 -0.08437256 -0.042856995 -0.018747468 0.038138032 -0.01662679 -0.119567074 -0.14573671 0.12771831 0.11809997 -0.099865615 0.047905583 -0.021780638 0.012854958 0.057960887 0.018436756 -0.03741453 -0.05145868 -0.06470104 -0.12616178 -0.008715404 -0.08210343 -0.04052499 -0.2476231 0.059065416 -0.15297621 -0.08265759 0.000209624 -0.078941904 -0.11816881 -0.13618384 0.14444421 0.07113695 -0.0045101945 0.05512633 -0.14361009 -0.0023192994 -0.0052429656 0.090854436 0.1517127 -0.0055956063 -0.15231793 -0.047549706 -0.058808338 0.10338539 0.0012849014 0.09777301 -0.036164124 0.086261824 0.15697339 -0.013470916 -0.21508628 0.19591391 -0.19967467 0.072960615 -0.09257492 0.21973991 0.10832949 0.028070971 0.005276394 -0.092473686 -0.009521846 -0.103243746 -0.1464473 0.11884587 0.18296477 -0.08979171 0.27086198 0.14002891 0.20855215 -0.106175 0.017430166 -0.19535117 -0.12414458 -0.03975102 -0.043669343 0.086047195 0.036528934 -0.2416332 -0.021732686 -0.19193582 -0.10549569 0.09385399 0.11130674 0.12374957 -0.038151234 -0.2164269 0.0729444 0.10505359 -0.11137339 0.024759296 -0.09346287 -0.01916817 0.029080916 0.048819214 0.052312497 0.19941376 -0.053615116 -0.07898851 0.23073983 0.14685696 0.19390674 -0.16796575 -0.14203008 0.14427437
9 -0.06556076 0.13478152 0.10947743 -0.08948127 -0.117032535 0.013271464 -0.04503182 0.038905077 -0.14901699 0.073334835 -0.14655033 0.20189148 -0.015111116 0.11772081 -0.046652257 0.105894506 -0.069562405 0.017699944 -0.061265692 -0.09143685 -0.04047608 0.095887735 0.10827506 0.029268613 -0.10021557 -0.069264136 0.00035384527 0.018663058 0.07045246 -0.10641172 -0.09506591 0.07940963 0.09892016 -0.05159099 0.023103807 -0.010764305 -0.040444598 0.041904673 -0.04527906 -0.051086612 -0.027341468 -0.1403885 -0.084829226 0.004157481 -0.08069896 -0.05697906 -0.120923355 -0.008342606 -0.2008421 -0.111899436 -0.09165694 0.00429715 -0.05380313 -0.11792616 0.09968075 0.04981102 0.011844877 0.040197037 -0.11480359 -0.03127108 -0.064069 0.07418863 0.14093664 0.009359876 -0.14637621 -0.05962839 -0.09387564 0.045247477 -0.05167069 -0.0066434345 0.01878484 0.074984096 0.12199731 -0.051064946 -0.15174097 0.1967427 -0.25832576 0.074790694 -0.09784303 0.18071313 0.08310176 0.08721465 -0.007720653 -0.0603053 0.02170123 -0.09831804 -0.13456023 0.066436835 0.11292972 -0.11842847 0.22907051 0.10912225 0.12901412 -0.059368465 0.04199011 -0.15198368 -0.12863906 -0.035965413 -0.068559736 0.117458224 -0.03198977 -0.17457509 -0.12907346 -0.13721019 -0.09851781 0.009465587 0.058871318 0.17274337 -0.076826 -0.13454533 0.0645936 0.07448583 -0.07373823 0.052623965 -0.08790322 -0.04225091 0.01730974 -0.06067311 0.015217873 0.122054115 -0.08893898 -0.04866203 0.16823031 0.13783598 0.09144874 -0.20253614 -0.116240256 0.10731417
5 -0.0054090824 -0.07580808 0.011902402 -0.12029306 -0.13266174 -0.029169083 0.0052792355 0.036329463 0.011473525 0.06359598 -0.20924316 0.17062595 -0.041795973 0.21210432 -0.019867111 0.1303745 0.03920485 0.07345834 -0.039570287 -0.034025475 0.021167507 0.21061972 0.13764764 -0.0152452355 -0.13460328 -0.115379624 0.049090493 -0.011924115 0.19944139 -0.098422945 -0.03708824 0.042547345 0.08881843 0.005981912 -0.02383564 -0.004034662 -0.11789097 0.020062886 -0.15740316 -0.086549126 -0.029839966 -0.2566282 -0.046395358 0.021712845 -0.10365471 -0.08768967 0.0124521125 -0.079149485 -0.31879258 -0.1775854 -0.2249131 0.11925162 0.02701725 -0.12353006 0.043356687 0.054025453 0.026497379 0.04234449 -0.091259144 -0.06732041 -0.14624307 0.061622005 0.12912792 0.050200727 -0.16282974 -0.092598565 -0.14650372 -0.025346037 -0.12678964 -0.15352488 0.06491675 0.067153215 0.09778306 -0.108268484 -0.08631651 0.22598454 -0.37752917 0.09326347 -0.12286179 0.15904762 0.071227916 0.18235819 -0.04165856 -0.016609883 0.062840015 -0.111166626 -0.1326665 -0.014693934 0.025875222 -0.17278154 0.22397004 0.061567068 0.04933963 0.007864739 0.09281399 -0.099522986 -0.16690643 -0.018597826 -0.09363162 0.16112866 -0.13360524 -0.12558965 -0.30486962 -0.07900981 -0.11915586 -0.093723655 -0.007908197 0.27340645 -0.13488737 -0.04496217 0.06360427 0.05463782 -0.03388341 0.098161295 -0.10883637 -0.083672255 0.009160595 -0.23398393 -0.05176403 0.04009358 -0.15515502 -0.018711211 0.11544965 0.12734373 -0.04514589 -0.29592243 -0.100669734 0.071815334
25 -0.08366978 0.20175989 0.15830661 -0.08400991 -0.1203069 0.029158054 -0.06653506 0.040073607 -0.20154661 0.08025657 -0.13614237 0.22326116 0.00731598 0.08969574 -0.052048758 0.10221571 -0.10512336 -0.0066227796 -0.06697813 -0.11712411 -0.0557695 0.0510254 0.092402816 0.031515267 -0.088478535 -0.061665226 -0.0047226255 0.03107207 0.025470786 -0.113083795 -0.12018758 0.10789049 0.10916581 -0.06894939 0.027721029 -0.008195399 -0.019103572 0.044471454 -0.026491523 -0.051744174 -0.047422796 -0.099748544 -0.09546319 -0.0016098822 -0.07796222 -0.052160386 -0.17851439 0.032035723 -0.18385518 -0.09613535 -0.053222682 -0.030171398 -0.08253207 -0.12434322 0.113062404 0.06780355 0.002609537 0.05551736 -0.12976466 -0.018552464 -0.033075072 0.086631015 0.14533156 0.0070111137 -0.15034655 -0.0562275 -0.07741119 0.06851712 -0.023599744 0.034520403 -0.011277427 0.08013108 0.14085358 -0.0226429 -0.18496954 0.19802965 -0.23530032 0.0739693 -0.10183438 0.20044619 0.09200771 0.059152167 -0.009744286 -0.0744953 0.0036889021 -0.101212196 -0.14061503 0.08184164 0.13081554 -0.10563451 0.25717142 0.11655154 0.16699325 -0.07565965 0.0372778 -0.1678733 -0.13294981 -0.03620448 -0.05148436 0.10300896 -0.0038733082 -0.21154921 -0.09059268 -0.15744466 -0.10687363 0.045417435 0.07992264 0.16021337 -0.05905803 -0.17342998 0.07238779 0.09070571 -0.090454735 0.042810332 -0.1000892 -0.032118727 0.020617062 -0.009117 0.023211973 0.15467203 -0.07265932 -0.060963318 0.20576523 0.13351175 0.13099238 -0.19395322 -0.12748796 0.123053625
26 -0.092601754 0.25078842 0.18193804 -0.08154677 -0.12131203 0.03557294 -0.081772014 0.03849322 -0.23031177 0.07890184 -0.12899229 0.22727992 0.014541034 0.070438996 -0.061227914 0.09987048 -0.12433999 -0.019966688 -0.06807952 -0.13008536 -0.067973346 0.02965768 0.09264759 0.04240608 -0.090723015 -0.05886433 -0.008041338 0.031259038 0.0031740917 -0.11703785 -0.13151096 0.11884193 0.11070876 -0.08361803 0.03788319 -0.013197821 -0.008784234 0.050547812 -0.004998751 -0.04379695 -0.04749746 -0.080400065 -0.10621856 -0.00547449 -0.08169373 -0.052227512 -0.20886563 0.049781896 -0.1733968 -0.0899492 -0.03539484 -0.052644957 -0.095215715 -0.12807724 0.12129952 0.0716154 -0.00049705745 0.056556582 -0.13270043 -0.017138327 -0.014517343 0.09227564 0.15149838 -0.004904086 -0.15599631 -0.04808701 -0.06907973 0.08879172 -0.011330285 0.0594759 -0.023732595 0.08313486 0.15413155 -0.01104101 -0.19648139 0.19278593 -0.21803993 0.07346632 -0.102300696 0.21545233 0.09653112 0.041768275 -0.0019118516 -0.08125616 -0.0023096371 -0.102136336 -0.14500327 0.095014885 0.15347344 -0.1025178 0.2677095 0.121117495 0.18852876 -0.08431806 0.030629704 -0.18156545 -0.13034804 -0.040591855 -0.04341776 0.09581312 0.015355808 -0.2304985 -0.060203332 -0.176996 -0.10879733 0.06315576 0.088904366 0.14785592 -0.047798242 -0.1914429 0.07534236 0.09472698 -0.09764737 0.037552338 -0.0984117 -0.029433778 0.02640757 0.015244788 0.031779617 0.16992034 -0.06902891 -0.062818766 0.2220759 0.13348755 0.16180873 -0.18347557 -0.1320273 0.13344036
31 -0.086249575 0.21287256 0.1533978 -0.08659585 -0.1177396 0.02288879 -0.06380488 0.041878022 -0.2024467 0.07680223 -0.13488893 0.21755145 0.0041070366 0.08697804 -0.051598147 0.10641143 -0.110359676 -0.011941752 -0.06516794 -0.12005342 -0.05486357 0.051297035 0.09435775 0.032325972 -0.09513589 -0.05844871 -0.00919047 0.025583537 0.028600298 -0.11328927 -0.11628528 0.10367369 0.10660961 -0.0762001 0.031952742 -0.011548206 -0.018984893 0.051192388 -0.019290002 -0.046121284 -0.042909455 -0.10232501 -0.09514546 -0.0026572335 -0.08277788 -0.051339924 -0.17744412 0.021475052 -0.17141388 -0.09604963 -0.04995686 -0.03691787 -0.084593356 -0.12462147 0.117322035 0.05889443 0.008576242 0.047046166 -0.12654813 -0.017215507 -0.032067116 0.08243837 0.14102277 0.00065229356 -0.14461094 -0.05579027 -0.07623717 0.07340311 -0.029763393 0.04059814 -0.007233501 0.07718895 0.13876234 -0.03353545 -0.1764287 0.19104867 -0.22926988 0.07166096 -0.09665968 0.19789413 0.089571 0.059910387 0.0013257524 -0.07316647 0.008233234 -0.099839896 -0.140318 0.08799392 0.14231871 -0.1067129 0.24486145 0.11911693 0.15983999 -0.07721329 0.026986383 -0.16967958 -0.12578921 -0.041912153 -0.046606794 0.09716347 0.0010127288 -0.20189318 -0.07948137 -0.15892418 -0.09928597 0.050755322 0.08090329 0.1481837 -0.06211195 -0.1695564 0.068695545 0.08825298 -0.086916514 0.04058029 -0.09068265 -0.03240614 0.021164265 -0.010720413 0.034749195 0.15476313 -0.067939356 -0.064962044 0.19034968 0.13552758 0.13641638 -0.18092081 -0.11770557 0.121122286
29 -0.07125469 0.18208604 0.14730188 -0.08503242 -0.122442394 0.020214392 -0.065031774 0.041119803 -0.18675688 0.077622645 -0.14268929 0.21691938 0.0047065443 0.09485057 -0.056487173 0.106409416 -0.0995079 -0.004724629 -0.063905574 -0.10878735 -0.05394253 0.061733373 0.09251166 0.030956283 -0.094554424 -0.06299289 0.0009683543 0.02273914 0.041509617 -0.11561392 -0.1116176 0.106372155 0.10718199 -0.06448328 0.03204044 -0.0102419965 -0.02666398 0.04741274 -0.03379561 -0.050192006 -0.03938995 -0.11346794 -0.09955291 -0.005417013 -0.07966365 -0.058769714 -0.16935629 0.022408636 -0.18819167 -0.103011504 -0.06876115 -0.01701495 -0.07750939 -0.119023904 0.1037469 0.064864755 0.002548596 0.04971433 -0.123408325 -0.02480999 -0.039518617 0.08487412 0.14515509 0.006136222 -0.144489 -0.0582959 -0.08115475 0.0652188 -0.03470193 0.026526269 -0.0046046916 0.07758328 0.14036523 -0.031446934 -0.17291476 0.19387737 -0.24159685 0.0764115 -0.10214539 0.2007602 0.09330558 0.06501362 -0.006852366 -0.06961738 0.0067238025 -0.10101378 -0.13715689 0.070933625 0.12737785 -0.110904574 0.25217816 0.108445115 0.16140597 -0.06805975 0.041798964 -0.16414657 -0.13397893 -0.03504147 -0.06250238 0.100983575 -0.008239428 -0.20456138 -0.103477456 -0.15075731 -0.10507347 0.038520608 0.06800679 0.16485798 -0.06621333 -0.16494747 0.07265804 0.08402263 -0.084957 0.040049803 -0.09853325 -0.034166187 0.021265864 -0.024063107 0.014835662 0.14891322 -0.08180172 -0.058110524 0.19894637 0.12810951 0.12689534 -0.200129 -0.1281946 0.11428514
20 -0.065678656 0.12794943 0.119670115 -0.086174965 -0.12159874 0.015038912 -0.043817673 0.038314827 -0.14853543 0.06946745 -0.15168178 0.20805137 -0.009473153 0.11969196 -0.0451458 0.10610157 -0.07619606 0.012412766 -0.06331239 -0.09764052 -0.03975339 0.093755774 0.10484869 0.024803728 -0.09869367 -0.06894266 -0.00025459297 0.023887202 0.07033375 -0.10738877 -0.09332587 0.09082949 0.10486891 -0.05688388 0.022145476 -0.011162964 -0.041754562 0.037593883 -0.052551713 -0.05322466 -0.03389383 -0.13797972 -0.08589323 0.00038593655 -0.08455129 -0.05757088 -0.13230282 -0.0008912075 -0.20308377 -0.115262516 -0.09359466 0.0015430102 -0.056881044 -0.12425052 0.09961078 0.061056864 0.011822526 0.042085093 -0.117213696 -0.031193836 -0.06302912 0.07783081 0.1438698 0.009363988 -0.14996608 -0.061227247 -0.09854179 0.052220255 -0.047815695 -0.0091425795 0.012357774 0.08150044 0.12922357 -0.044884592 -0.15852657 0.20656602 -0.2618837 0.07243324 -0.10145579 0.18824087 0.08908135 0.088348866 -0.012874442 -0.062285524 0.0172203 -0.09579377 -0.13927963 0.066263884 0.10945634 -0.12571251 0.24165833 0.10791181 0.1345863 -0.060550764 0.04982978 -0.15604591 -0.14064737 -0.040211137 -0.06649894 0.12048299 -0.032874744 -0.18364057 -0.1387423 -0.13506922 -0.104573205 0.009554633 0.05770984 0.17553332 -0.077449374 -0.1380174 0.06976859 0.074206926 -0.07486182 0.05273715 -0.09119504 -0.045147344 0.018558662 -0.059740186 0.012034656 0.12359015 -0.08980703 -0.05695931 0.17633046 0.13247013 0.08692798 -0.20841265 -0.1195107 0.10716532
11 -0.007894972 -0.09400435 0.0082957 -0.13031003 -0.14091647 -0.03352706 0.014083863 0.037446745 0.013232712 0.059562366 -0.21851681 0.17519484 -0.045740157 0.23156603 -0.018655367 0.1297594 0.047900043 0.07903112 -0.03782938 -0.031928148 0.023522241 0.22484605 0.15208548 -0.016083341 -0.14359991 -0.12611014 0.04729651 -0.010999374 0.20799623 -0.10862807 -0.032790415 0.04360909 0.09324379 0.007464575 -0.03319395 -0.00040394452 -0.13143116 0.0148129985 -0.16520454 -0.09440984 -0.031860676 -0.27788773 -0.04120209 0.021475883 -0.10884169 -0.08748618 0.018938497 -0.08749004 -0.3327353 -0.18862571 -0.2430836 0.1319566 0.032228436 -0.124656625 0.038733568 0.06208447 0.03532589 0.042388625 -0.09616341 -0.075422145 -0.15822001 0.060238857 0.13386518 0.045516968 -0.16859913 -0.09598118 -0.15809004 -0.032433737 -0.13655552 -0.16906814 0.07758631 0.06898113 0.095353335 -0.11212061 -0.08824185 0.23902057 -0.40177655 0.093530156 -0.12591931 0.16529459 0.07009855 0.19214001 -0.04681005 -0.012247215 0.06809426 -0.11521457 -0.13391478 -0.014311069 0.020084921 -0.17653881 0.22645696 0.058340542 0.0519953 0.010594631 0.09493562 -0.10585222 -0.177908 -0.021754218 -0.09672982 0.17738774 -0.1451589 -0.12082124 -0.32950515 -0.073295906 -0.12665468 -0.10682705 -0.012728336 0.28284833 -0.14019592 -0.039640933 0.066145346 0.057024892 -0.030459506 0.104097664 -0.11268629 -0.09592593 0.0074231247 -0.24575318 -0.05706665 0.031029973 -0.16218098 -0.015536302 0.11166571 0.1309498 -0.058301236 -0.30981824 -0.09931754 0.06598825
16 -0.10575851 0.30499515 0.20352592 -0.065162115 -0.11371699 0.041902345 -0.09329864 0.0391363 -0.2667408 0.08927327 -0.11747422 0.23238394 0.020135913 0.045483466 -0.06511664 0.10113841 -0.15610324 -0.038439244 -0.08070548 -0.14864162 -0.07890827 0.0023336385 0.08579776 0.051500592 -0.081005044 -0.03894157 -0.021680951 0.042068135 -0.02865101 -0.11855811 -0.15046921 0.12884614 0.11749015 -0.09951433 0.054450825 -0.015253232 0.014950991 0.062759034 0.023895606 -0.03575376 -0.04841149 -0.051391464 -0.11868792 -0.010624071 -0.07916889 -0.040831886 -0.24497356 0.0608189 -0.14239478 -0.07400872 0.0069403476 -0.07943498 -0.12178289 -0.13115145 0.14048474 0.068774596 -0.0019448824 0.056841377 -0.14749898 -0.0018007378 0.0037656303 0.0946086 0.15443568 -0.007188374 -0.15343516 -0.04325955 -0.056918386 0.106850654 0.003119791 0.09826917 -0.037964895 0.09201629 0.16045788 -0.008256974 -0.21446453 0.18494956 -0.18827564 0.069808684 -0.09330183 0.21794584 0.10204421 0.019480247 0.012044979 -0.09469098 -0.009715133 -0.10282517 -0.14693709 0.11968521 0.17940001 -0.08412048 0.26667938 0.14300382 0.20522353 -0.10683876 0.011438113 -0.19635361 -0.12179576 -0.043501247 -0.03782965 0.085463814 0.04066776 -0.24093357 -0.013149836 -0.18835783 -0.096700095 0.09333583 0.109574325 0.11625955 -0.037624553 -0.21227048 0.070245504 0.10145815 -0.10714911 0.022541843 -0.09266782 -0.01863094 0.025293108 0.061922304 0.057608925 0.1942905 -0.04713738 -0.078287266 0.22876127 0.14438431 0.20211889 -0.15946153 -0.13201658 0.14454909
18 -0.03320764 0.02095486 0.06697076 -0.108482435 -0.13425758 -0.008407334 -0.017240243 0.039663423 -0.077013984 0.06230767 -0.18423195 0.1973364 -0.033457786 0.16775742 -0.038879905 0.11906126 -0.021638645 0.04903937 -0.05490324 -0.06406228 -0.010562748 0.16332988 0.1313589 0.010297656 -0.11541073 -0.08996649 0.016364338 0.006597231 0.13782005 -0.10735943 -0.060985666 0.06824913 0.09833645 -0.02580599 0.0003978329 -0.0035645624 -0.08165858 0.026175557 -0.1027096 -0.07229105 -0.025281731 -0.21181688 -0.06568561 0.00951849 -0.09088209 -0.0776418 -0.05549042 -0.049595077 -0.26472947 -0.15323335 -0.16707875 0.06539999 -0.018031508 -0.11785402 0.07500097 0.055347905 0.019502867 0.038756013 -0.0999904 -0.061392676 -0.10472617 0.077297404 0.1446695 0.02594935 -0.15805753 -0.06992501 -0.12657993 0.014265819 -0.091666214 -0.08633769 0.05181303 0.074993685 0.11128695 -0.07257923 -0.13134624 0.2235238 -0.32859886 0.085489154 -0.108060546 0.17304893 0.07469207 0.13935278 -0.027023233 -0.042464048 0.039012313 -0.09934626 -0.14150526 0.032453746 0.066680364 -0.15508576 0.2293974 0.09178005 0.10053416 -0.03156359 0.075312145 -0.13763343 -0.15966913 -0.03433634 -0.08295235 0.14771996 -0.08528817 -0.15249076 -0.23430757 -0.11154737 -0.10846885 -0.04099364 0.020384647 0.22937576 -0.109811604 -0.093850076 0.07489325 0.06555709 -0.060383238 0.07057975 -0.096905224 -0.06718332 0.0071507078 -0.14904816 -0.016347261 0.08128973 -0.12694953 -0.038368054 0.14976984 0.1304667 0.01870224 -0.25104618 -0.114021756 0.083844386
15 -0.096587814 0.2580633 0.18619478 -0.079185806 -0.11927316 0.03602195 -0.07757099 0.03845529 -0.23981875 0.08494593 -0.12930833 0.22491238 0.016972335 0.069829576 -0.05625946 0.10646057 -0.13747482 -0.023792254 -0.07636754 -0.13556883 -0.0702148 0.029016564 0.09730308 0.04169313 -0.08894744 -0.04989744 -0.01667716 0.03509175 0.0060869395 -0.116703235 -0.14210616 0.12101374 0.11453684 -0.088987134 0.043170977 -0.013549634 -0.0034508747 0.053061813 0.0012335432 -0.044018615 -0.048671078 -0.08065266 -0.113781065 -0.0016722017 -0.07927923 -0.04817115 -0.21657136 0.04572414 -0.1704706 -0.09095974 -0.029935567 -0.054504607 -0.10294154 -0.13080405 0.12897503 0.06711326 0.004112225 0.05497654 -0.14514619 -0.00742687 -0.021181328 0.09193069 0.15142305 -0.0030036287 -0.15802203 -0.05558639 -0.0675243 0.091918744 -0.011183492 0.06539734 -0.025090562 0.08739542 0.15773399 -0.019318415 -0.20040639 0.19539565 -0.22041415 0.07338561 -0.0989702 0.21571432 0.10451958 0.045396358 0.002192132 -0.082805194 4.638825e-05 -0.1061312 -0.14609322 0.10483638 0.16037488 -0.09459717 0.2705842 0.13164584 0.18883498 -0.088060245 0.021435488 -0.18606345 -0.13118914 -0.037564855 -0.042637765 0.09659165 0.021094218 -0.22862034 -0.050011784 -0.18145351 -0.10789269 0.06642147 0.095947646 0.14154486 -0.050731994 -0.19808035 0.06732778 0.09508183 -0.09899875 0.035088994 -0.09369476 -0.025729252 0.029173302 0.018333588 0.03921423 0.17796706 -0.06329048 -0.06886453 0.22170246 0.14554313 0.17208198 -0.18427487 -0.13177073 0.13442646
13 -0.03636145 0.02227888 0.06259403 -0.10426976 -0.12975961 -0.007968644 -0.022561012 0.04229749 -0.08000928 0.06427309 -0.18448684 0.20123343 -0.034398638 0.17722353 -0.04085764 0.12483235 -0.027257185 0.045715835 -0.053851556 -0.06629279 -0.011816546 0.16195065 0.12311435 0.004553619 -0.11392165 -0.0944522 0.024045497 0.01200279 0.14155392 -0.11207595 -0.06194155 0.07440631 0.098397605 -0.023632037 -0.0009122245 -0.0013647951 -0.087212786 0.025960993 -0.10617395 -0.07727245 -0.026360711 -0.21524748 -0.06918566 0.0038832803 -0.09542033 -0.0795188 -0.064364545 -0.045721933 -0.27066275 -0.15293245 -0.1716879 0.06999963 -0.023399074 -0.12574524 0.075911656 0.052812897 0.022652 0.04254264 -0.105679825 -0.05772655 -0.10573802 0.07689725 0.14360553 0.026530845 -0.15614717 -0.073685676 -0.13000156 0.014901712 -0.09488927 -0.080518335 0.05200754 0.08246539 0.10973441 -0.075545326 -0.13145944 0.22969733 -0.33542633 0.09115588 -0.11314732 0.17758131 0.07907291 0.14327708 -0.020446304 -0.04198863 0.0360582 -0.10552136 -0.14462356 0.03078514 0.06615821 -0.1615321 0.23644626 0.086649 0.09629882 -0.029836062 0.07140515 -0.13922743 -0.16435379 -0.037143454 -0.089807324 0.14737791 -0.08934207 -0.15882109 -0.24085116 -0.10911011 -0.11283823 -0.04222756 0.016417379 0.2269274 -0.11660809 -0.09448365 0.07756301 0.061481733 -0.05389434 0.078886196 -0.105846435 -0.06185311 0.010446458 -0.15534323 -0.019201946 0.079753615 -0.12854943 -0.042073168 0.15007238 0.13350363 0.018910293 -0.2625178 -0.11050671 0.09117799
17 -0.01834321 -0.031656675 0.036086094 -0.13321164 -0.1394601 -0.018507639 -0.004780799 0.03973257 -0.02104091 0.07201021 -0.2161562 0.18792377 -0.036889665 0.20808172 -0.020405438 0.13540897 0.025556853 0.06796624 -0.04464196 -0.05091919 0.017187675 0.20354974 0.14136827 -0.0051796623 -0.14316134 -0.12225154 0.045201883 -0.002346256 0.18484472 -0.11319473 -0.049107093 0.05348418 0.09760182 -0.0034725547 -0.02135033 -0.004556408 -0.11113058 0.021077864 -0.14643624 -0.08763657 -0.04049025 -0.2541365 -0.04937933 0.022109894 -0.11543295 -0.08392812 -0.01065444 -0.07127899 -0.31952542 -0.1770124 -0.2139168 0.103269055 0.01664714 -0.12653784 0.05343557 0.060645867 0.028965395 0.042604722 -0.10525581 -0.06794155 -0.13624305 0.06945676 0.1418391 0.040590566 -0.1691616 -0.087575294 -0.1462991 -0.014236271 -0.116793305 -0.14188948 0.059180524 0.066236146 0.10853682 -0.098329015 -0.11164938 0.23268838 -0.3866612 0.09713605 -0.13038057 0.17724179 0.073200874 0.17688516 -0.04373365 -0.02332125 0.06166937 -0.115534395 -0.13592267 -0.0016523529 0.037189018 -0.16742995 0.24118602 0.07162218 0.068799034 0.0011971302 0.09151273 -0.11568101 -0.1773599 -0.016599275 -0.08354141 0.1652469 -0.121995986 -0.14794146 -0.29916638 -0.09097316 -0.1271405 -0.085346974 0.0019915933 0.2762697 -0.12886132 -0.06968223 0.06879555 0.059548017 -0.040682405 0.09735174 -0.12181593 -0.08812843 0.016689058 -0.21687886 -0.04008257 0.05379315 -0.1557386 -0.01885768 0.13480839 0.13738278 -0.023365144 -0.30451855 -0.10944092 0.08495271
27 -0.11660731 0.3353288 0.21922857 -0.07044984 -0.11897282 0.04465127 -0.10503359 0.04597605 -0.29809862 0.09240757 -0.11466036 0.2451437 0.024971839 0.039731067 -0.07086441 0.101275586 -0.172404 -0.049935043 -0.080069445 -0.15876767 -0.09255817 -0.007728711 0.0790233 0.05373221 -0.08158156 -0.04079777 -0.03322235 0.0499195 -0.04191494 -0.12734897 -0.15804943 0.1376624 0.1264349 -0.109647736 0.053836208 -0.0232789 0.022433842 0.066336595 0.03619082 -0.032602903 -0.053726617 -0.05359007 -0.13543995 -0.009744443 -0.07541817 -0.03944419 -0.27441287 0.066637434 -0.1330743 -0.07139763 0.018446757 -0.09519443 -0.13834628 -0.13325173 0.15606304 0.07449109 -0.0045129308 0.06402349 -0.15640336 0.00010550021 0.010670397 0.100773916 0.16411474 -0.01685747 -0.15456127 -0.041242603 -0.051418707 0.12301061 0.011630515 0.11696533 -0.04503891 0.094163716 0.16589716 -0.0022157268 -0.23424223 0.19845015 -0.18856663 0.07440087 -0.09123713 0.22687963 0.10959916 0.01601355 0.010903645 -0.10249724 -0.020224586 -0.108964294 -0.14880285 0.13344745 0.20002858 -0.086886376 0.28218868 0.15293317 0.22843455 -0.118618734 0.009382765 -0.21004106 -0.1212704 -0.049203463 -0.04041785 0.07871033 0.050288882 -0.25398695 -0.00095128553 -0.20901822 -0.10095398 0.11352723 0.114980936 0.10877015 -0.03226194 -0.22993286 0.079757474 0.103274256 -0.12081591 0.025149059 -0.09558004 -0.018864118 0.024559343 0.080704845 0.062466726 0.21298234 -0.04518896 -0.086683065 0.25004518 0.14653583 0.22462435 -0.15546267 -0.14081803 0.1554236
10 -0.06361705 0.12975349 0.11875496 -0.09622351 -0.1203062 0.010190174 -0.045539886 0.042620648 -0.14448959 0.071263745 -0.14959873 0.2071034 -0.013727392 0.117789306 -0.04605787 0.11033303 -0.06860965 0.016012395 -0.056392588 -0.08956131 -0.034580622 0.0955236 0.10931745 0.01868022 -0.101688944 -0.06667219 0.0067673894 0.01689057 0.07187244 -0.10962414 -0.095515415 0.089147374 0.104525186 -0.0473009 0.0163224 -0.008336693 -0.0467033 0.03757496 -0.05203892 -0.055263046 -0.02940093 -0.14489934 -0.08180493 0.0021374135 -0.08018529 -0.05551232 -0.121727295 -0.007761442 -0.20548159 -0.11250085 -0.09907029 0.010234056 -0.050462257 -0.11596856 0.09127264 0.053149994 0.016422994 0.039462928 -0.11669556 -0.034402464 -0.063782 0.07742053 0.1379373 0.013279955 -0.14674008 -0.06318638 -0.098629504 0.043102093 -0.051847626 -0.018093664 0.016913678 0.07917994 0.12069784 -0.04747321 -0.156846 0.20191292 -0.26503137 0.07528099 -0.10477359 0.18049869 0.08715166 0.09472808 -0.010746197 -0.054954093 0.020739783 -0.09893918 -0.13791148 0.05632159 0.10872268 -0.12966922 0.23814881 0.10467124 0.13398494 -0.05658252 0.04459262 -0.15493327 -0.14182845 -0.037541892 -0.07092993 0.11963416 -0.035250124 -0.17659633 -0.147184 -0.1330758 -0.097588524 0.0072933813 0.04908114 0.17762578 -0.08310988 -0.13397601 0.06883438 0.06989031 -0.07469424 0.058197144 -0.098139524 -0.043935284 0.015659288 -0.06748374 0.012304752 0.1161754 -0.0942349 -0.050174385 0.17175521 0.13670227 0.08478192 -0.21045868 -0.11315697 0.103141256
21 -0.098629326 0.26180977 0.17762631 -0.07464714 -0.11743975 0.037412535 -0.07811193 0.04436334 -0.24239749 0.08979151 -0.13302389 0.23141748 0.015439963 0.070180506 -0.058715574 0.10722581 -0.13364723 -0.02665161 -0.07095447 -0.13384795 -0.066396736 0.03228693 0.0895104 0.048120562 -0.08414927 -0.046142064 -0.017055646 0.037059076 -0.000930027 -0.117250584 -0.13785799 0.12173848 0.11869968 -0.0878341 0.041040063 -0.019221457 0.0028355038 0.053790506 0.0032727693 -0.042677935 -0.04568001 -0.082230665 -0.11841255 -0.0061085285 -0.077118956 -0.046821464 -0.22348873 0.04507728 -0.15788785 -0.08344805 -0.018369604 -0.06100972 -0.10502263 -0.13539319 0.13533497 0.066555746 0.0019398187 0.058009528 -0.14241596 -0.00742655 -0.015086486 0.091219164 0.14924988 -0.0057963394 -0.15659648 -0.051339593 -0.069830924 0.08936382 -0.013878075 0.07313963 -0.022225639 0.083065085 0.15179963 -0.022463966 -0.20005488 0.19971476 -0.21639827 0.07138414 -0.09936133 0.21558623 0.101040125 0.042810097 0.0016069951 -0.083465084 0.0017883262 -0.10398355 -0.1423333 0.101020776 0.16790149 -0.098277315 0.26726872 0.13263583 0.1931867 -0.09596072 0.021880146 -0.18928397 -0.12792712 -0.03945082 -0.04825223 0.09046572 0.020446993 -0.22960408 -0.049153674 -0.17540292 -0.10634898 0.072730854 0.09878584 0.13863064 -0.047579233 -0.19717866 0.06991762 0.092951715 -0.10079188 0.03354229 -0.0978732 -0.028627222 0.028544903 0.022446554 0.044168457 0.1838821 -0.061213017 -0.07680273 0.22081347 0.14522843 0.17641996 -0.1761756 -0.13332607 0.13632636
22 -0.054203283 0.08895551 0.10148825 -0.098146066 -0.12102028 0.0033626687 -0.036104396 0.044621497 -0.11900435 0.06520582 -0.16456737 0.20348482 -0.022588212 0.13604698 -0.04562309 0.113029726 -0.053979024 0.028690036 -0.06032582 -0.0856121 -0.029689971 0.11716841 0.11375261 0.020328956 -0.10572566 -0.07950834 0.0074340375 0.013333272 0.09376155 -0.1081037 -0.08277763 0.078065716 0.1016696 -0.04581072 0.010560419 -0.012632517 -0.06257572 0.031640828 -0.07392725 -0.063149706 -0.028013913 -0.168688 -0.07834216 0.0056099338 -0.07834428 -0.06684812 -0.100496486 -0.017494412 -0.22518235 -0.12704127 -0.12084998 0.031368896 -0.038573764 -0.11877952 0.090043545 0.058248613 0.011179346 0.040399894 -0.106249765 -0.043300368 -0.07666228 0.076090544 0.14439806 0.020104233 -0.14609589 -0.061429415 -0.10708398 0.03637444 -0.06366207 -0.032068238 0.030209754 0.07729105 0.122355804 -0.054105733 -0.14595011 0.21244726 -0.2885938 0.07787117 -0.09923692 0.18336385 0.08026842 0.105484344 -0.018308487 -0.047991145 0.02746386 -0.09561837 -0.13975784 0.0507068 0.09282823 -0.13451813 0.23677288 0.10155342 0.119116545 -0.044284552 0.06086207 -0.1494466 -0.14715044 -0.035949413 -0.0780806 0.12470788 -0.045616973 -0.17403935 -0.17511143 -0.13082042 -0.099391885 -0.0021902514 0.043546733 0.19601485 -0.090949155 -0.12235734 0.06958402 0.06519837 -0.07408859 0.055910695 -0.09529129 -0.047167644 0.015728503 -0.08919321 -0.0021817703 0.11114713 -0.10387774 -0.047596656 0.16663294 0.13530892 0.064438246 -0.22443175 -0.11759562 0.101565085
19 -0.08870219 0.23581389 0.1623767 -0.08200155 -0.11573683 0.02575486 -0.07085415 0.04193486 -0.21850322 0.08563501 -0.13888668 0.2186235 0.0129190115 0.0750463 -0.054991074 0.10649645 -0.11677814 -0.015386342 -0.06629454 -0.12498738 -0.058046337 0.04402582 0.096544236 0.043850873 -0.08869336 -0.054918654 -0.014469201 0.03543253 0.014505918 -0.11533497 -0.1258697 0.106334604 0.10555178 -0.07952806 0.03635358 -0.014995626 -0.012366295 0.05445632 -0.00625745 -0.04713156 -0.04420715 -0.09450465 -0.10298473 0.0016340219 -0.07968269 -0.044794105 -0.19554594 0.030997967 -0.16970165 -0.088601306 -0.03768997 -0.048913397 -0.08878259 -0.123991884 0.12349765 0.06377299 0.0024319964 0.047787886 -0.13226517 -0.0077903313 -0.030071566 0.08151858 0.14278084 -0.0035547365 -0.15041207 -0.049695473 -0.07025069 0.079687364 -0.022920733 0.054805785 -0.012305198 0.079560496 0.14578214 -0.026016634 -0.18370815 0.19430202 -0.21956632 0.07173964 -0.097110234 0.20401525 0.09743748 0.04993067 0.00016046665 -0.07855524 0.004013274 -0.10411344 -0.14085746 0.08864507 0.15060815 -0.10211958 0.25543648 0.12143849 0.17219207 -0.083314866 0.025757065 -0.17289174 -0.12301851 -0.034570586 -0.051595226 0.09587445 0.01255543 -0.21037598 -0.06814169 -0.16322172 -0.103722714 0.05522563 0.086033076 0.1388265 -0.054310296 -0.18208016 0.063513465 0.08725098 -0.09300765 0.03570789 -0.090628065 -0.03036193 0.02369092 0.007919475 0.03488359 0.16562434 -0.067902334 -0.06449999 0.20059012 0.14281918 0.14864652 -0.17770058 -0.1246024 0.1284887
23 -0.10304991 0.27383918 0.19117078 -0.080814295 -0.12401161 0.037959334 -0.08487057 0.045895763 -0.2507767 0.08671568 -0.1334804 0.2429641 0.008652089 0.06951512 -0.059465695 0.109521896 -0.14177147 -0.025009328 -0.077601 -0.1366636 -0.07104288 0.029375706 0.09794003 0.045745462 -0.09209818 -0.047002293 -0.02083701 0.03996551 -6.3961896e-05 -0.1200047 -0.13926627 0.12345634 0.11793779 -0.091767 0.048534233 -0.02050954 -0.005233457 0.05699215 0.0033870325 -0.04106556 -0.043206032 -0.07873151 -0.11705457 -0.0010792396 -0.083226256 -0.049011502 -0.2187031 0.043785606 -0.16215913 -0.09053652 -0.027923327 -0.058609247 -0.10875615 -0.13152878 0.13473283 0.07006289 0.004422591 0.05283753 -0.14113946 -0.008540165 -0.020415593 0.097234994 0.1583533 -0.0042186487 -0.15745573 -0.048621107 -0.069859765 0.09099228 -0.009661968 0.06855167 -0.020894464 0.09042848 0.15388858 -0.014845125 -0.20233762 0.20054038 -0.21772541 0.07203964 -0.09928523 0.21815215 0.10458612 0.040178046 0.002800493 -0.08942925 0.002806757 -0.10123022 -0.15111631 0.10686159 0.17217696 -0.09803617 0.26934603 0.13715325 0.18989561 -0.09529584 0.021899242 -0.19395 -0.13000913 -0.045431867 -0.046513725 0.09384081 0.020424392 -0.23357289 -0.051458176 -0.18037896 -0.10128617 0.07514397 0.1004435 0.13635924 -0.05077396 -0.20338683 0.07374882 0.09658332 -0.10759915 0.029692851 -0.09927085 -0.023472996 0.027843518 0.028520662 0.04765493 0.18485756 -0.06293023 -0.07439802 0.22506765 0.15124191 0.17736301 -0.1792889 -0.13371797 0.13900407
12 -0.032909453 0.025763907 0.0665282 -0.10822089 -0.12474819 -0.011320214 -0.011148372 0.038339566 -0.06654041 0.064873636 -0.17579143 0.18872745 -0.0313787 0.16528611 -0.028374564 0.114035174 -0.016563894 0.046539742 -0.04534036 -0.05867002 -0.012129609 0.15683895 0.12797791 0.0058628023 -0.118253805 -0.09475355 0.021905653 0.0049378527 0.13608605 -0.10077998 -0.062804446 0.0608631 0.088550374 -0.018982455 -0.00278471 -0.0026007015 -0.084289014 0.02576434 -0.1056631 -0.07068507 -0.021248516 -0.20427127 -0.058394484 0.00846458 -0.08787522 -0.071583875 -0.049055398 -0.04598247 -0.25676155 -0.1422893 -0.16394651 0.06450218 -0.0069768876 -0.1174628 0.06312019 0.0507062 0.023696408 0.038482707 -0.098416016 -0.05648752 -0.10127793 0.071643084 0.13468358 0.02857833 -0.14818873 -0.07016035 -0.11794056 0.006134904 -0.08963066 -0.08788988 0.044032637 0.07376833 0.10923792 -0.07835768 -0.11420829 0.20681947 -0.3200939 0.077489644 -0.10881519 0.17051455 0.07360332 0.13503483 -0.02324969 -0.039242 0.043459557 -0.10310802 -0.13468277 0.025110086 0.060027 -0.14758354 0.22401662 0.08279606 0.08512047 -0.02306737 0.06765989 -0.12482597 -0.14612868 -0.030601967 -0.077437356 0.14342134 -0.08612022 -0.14304172 -0.22287065 -0.104240894 -0.10801042 -0.03965933 0.023210475 0.2229084 -0.10830207 -0.08805387 0.06647598 0.06263403 -0.05600129 0.076319434 -0.09528947 -0.06301374 0.0146605 -0.14448462 -0.017047893 0.07542443 -0.12007848 -0.031087449 0.14008619 0.12981348 0.018614428 -0.24946636 -0.10874317 0.08295448
