34 128
34 0.10063821 -0.016199812 0.13509952 0.10850853 -0.14604826 0.0630174 -0.0054879985 -0.07376132 -0.09260324 0.21019068 0.13186646 -0.028301949 0.12064086 0.105100006 0.0003716413 -0.03202712 0.016643858 -0.045518838 -0.0736081 0.10168028 0.16265157 -0.07699916 -0.038722843 0.0108897295 0.15474524 0.20105384 -0.17359571 -0.04581051 0.18657173 0.03692475 0.08218483 -0.09003659 0.090836726 -0.013691382 0.05868231 -0.111409195 0.09013744 0.158864 0.08329238 -0.12678427 -0.102788456 0.14363961 0.1038658 -0.031236062 0.13647604 0.14568402 0.041299604 0.05934254 0.09792261 0.070800625 -0.19799988 -0.12775864 -0.0036020603 -0.11175317 -0.09138633 0.018392375 -0.03531165 -0.06446611 0.15379004 -0.04618613 0.03632898 0.03745276 0.0077261208 0.009818826 -0.09973398 -0.0074649993 0.07434081 -0.03388115 0.08365149 -0.13501747 -0.11922392 -0.16556579 -0.14149721 -0.0071118157 0.07370343 0.1408653 -0.17098509 0.03848349 0.10989704 0.029443044 -0.03569014 0.02621682 -0.1062195 -0.035134494 0.13566142 0.04562726 0.07074533 -0.15932097 0.08310129 0.11095011 -0.100754775 0.11705919 0.020396128 -0.100445405 -0.00018128043 -0.18255787 -0.046290394 0.15200199 -0.017009523 0.15287763 -0.15063015 -0.02428134 -0.012047058 0.10717847 0.1263971 -0.14738221 -0.04821463 0.09128044 -0.25325394 -0.1437319 -0.01585775 0.057973474 0.17122066 0.11810464 0.07460689 0.12061858 -0.07955046 -0.0128428135 -0.16214044 -0.11843358 -0.059772726 0.027484838 -0.14657404 -0.09197076 -0.15896897 -0.040575888 0.056439884 -0.18889564
1 0.15612392 -0.09009301 0.16423474 0.10178853 -0.17778519 0.04327047 0.02918285 -0.06518815 -0.04037543 0.0895359 0.1892327 0.045795284 0.064152256 0.047166437 -0.03865003 -0.004325295 -0.022375489 0.019573715 -0.092654645 0.14404024 0.19741589 -0.08685167 -0.08726044 -0.06388035 0.21356715 0.2149894 -0.15648057 -0.108620524 0.18110584 -0.021328038 0.090966865 -0.063381724 0.08703641 -0.032693002 -0.036127083 -0.072806016 0.064460814 0.07826791 -0.019363541 -0.051683545 -0.14630805 0.20275111 0.120690785 0.022750806 0.10257905 0.12608337 -0.03285966 0.049935963 0.16408935 -0.07193939 -0.14455743 0.014886114 -0.05695499 -0.043355573 -0.017168246 0.054743294 0.10382249 -0.026699483 0.18855712 -0.0658623 0.0045037586 0.02485356 0.036081474 -0.011752113 -0.119385846 -0.03297623 0.1347161 -0.027550906 0.11901592 -0.142117 -0.06079582 -0.13330449 -0.17263019 -0.07454506 0.034437343 0.08925537 -0.1971806 0.022021683 0.12565787 0.07019947 -0.02074329 0.09883303 -0.05616835 -0.022622244 0.09943578 0.124203555 0.14547841 -0.16905949 0.029052205 0.17688456 -0.08706696 0.20897439 0.06524004 -0.14241181 0.124959216 -0.05751125 -0.16520569 0.1747676 -0.05204904 0.119342804 -0.075443625 0.0156148635 0.14200597 0.12136219 0.21048075 -0.09989069 0.09928972 0.019460356 -0.17977451 -0.12044219 -0.0457765 0.13092805 0.16035575 -0.016786106 0.09379852 0.17522107 -0.015084232 0.011993364 -0.22201252 -0.07317089 -0.04888398 0.08598009 -0.14084716 -0.052828595 -0.14349242 -0.09333556 -0.08672685 -0.27036297
33 0.09347173 -0.0057291565 0.13026275 0.11160188 -0.13578035 0.07147567 -0.017164273 -0.06955728 -0.09293269 0.22589068 0.11455692 -0.03594609 0.120012596 0.110429 0.0103036035 -0.031353585 0.022964198 -0.0562084 -0.067703344 0.090693176 0.14412922 -0.06343771 -0.020521846 0.026485907 0.12998608 0.18383268 -0.17169459 -0.032374617 0.17524585 0.042395484 0.07019541 -0.09170729 0.079471774 -0.0080063995 0.07441234 -0.11905178 0.09053296 0.17121544 0.089403935 -0.13542596 -0.09542842 0.13168938 0.098208375 -0.041099224 0.13949816 0.13773555 0.055339843 0.0589466 0.08424686 0.0885549 -0.19769244 -0.1417126 0.010913065 -0.11326349 -0.10546889 0.015953086 -0.059822813 -0.07795672 0.13564226 -0.041647438 0.04026269 0.039117973 -0.0007140739 0.0070455335 -0.096899725 -0.0048509007 0.05795643 -0.029065913 0.076466605 -0.12993458 -0.12264128 -0.16981748 -0.12939827 0.0023780854 0.077148005 0.13483723 -0.15517335 0.044813942 0.10562688 0.024177726 -0.032863043 0.0103026545 -0.107764624 -0.046393577 0.13848452 0.03139918 0.054562226 -0.14856721 0.086529315 0.08888225 -0.10715585 0.09475523 0.015984789 -0.079572536 -0.0302897 -0.20344353 -0.021881115 0.1382428 -0.015292863 0.14761014 -0.16327348 -0.026355488 -0.042264763 0.09923277 0.100473404 -0.14582722 -0.075013176 0.10621116 -0.25763392 -0.14079589 -0.017672716 0.04048512 0.16083664 0.14065953 0.066789046 0.102875195 -0.09300269 -0.012373741 -0.14125559 -0.13095057 -0.06327519 0.016621986 -0.14146797 -0.09700534 -0.15964149 -0.03222229 0.076634675 -0.16564968
3 0.11423252 -0.040857874 0.13869716 0.10661259 -0.15643696 0.0547054 -0.0004265069 -0.071515985 -0.07711722 0.17299885 0.135688 -0.00040309576 0.102616146 0.082893305 -0.0064918273 -0.023592876 0.0016863463 -0.022485614 -0.074280806 0.11240652 0.16495568 -0.06818469 -0.043242205 -0.00016647964 0.15567838 0.19246686 -0.16179216 -0.061238356 0.17122276 0.018445773 0.08108856 -0.081276454 0.083847076 -0.012859552 0.02792934 -0.09746733 0.076719984 0.13283154 0.05419996 -0.10292144 -0.110089675 0.15832254 0.105370626 -0.014130556 0.12193835 0.13408639 0.027243378 0.05095187 0.111639015 0.034343638 -0.18166353 -0.0884123 -0.0118770795 -0.09359917 -0.07307361 0.029477771 -0.0033315043 -0.05822838 0.15116306 -0.052930918 0.019728096 0.032850977 0.01875966 0.0018997974 -0.10611976 -0.013931526 0.08485529 -0.03557451 0.08684038 -0.1285822 -0.09991943 -0.15235417 -0.14594279 -0.031314973 0.056067526 0.12419969 -0.16108647 0.03367001 0.109698266 0.03274051 -0.030968077 0.04919796 -0.09063102 -0.03438041 0.12589775 0.057995446 0.08579784 -0.15288985 0.05994192 0.12246796 -0.09568995 0.1383836 0.033252444 -0.10652391 0.030627714 -0.14489363 -0.07028135 0.14953543 -0.024493974 0.13895755 -0.12531121 -0.0155035565 0.023787571 0.10212955 0.13942814 -0.122346714 -0.007437851 0.076785214 -0.22248673 -0.1325175 -0.023788415 0.08084252 0.16072126 0.08569794 0.07685988 0.12799028 -0.063825585 -0.0038155762 -0.16602817 -0.10317217 -0.05731375 0.03572186 -0.13912344 -0.07179959 -0.15038913 -0.055782676 0.016580233 -0.19830906
2 0.13284868 -0.05721559 0.15306613 0.111363746 -0.15230031 0.051534023 0.013507194 -0.06518625 -0.0658845 0.13997637 0.15530442 0.01669962 0.08341456 0.07086199 -0.015153539 -0.019456057 -0.003216169 -0.009140439 -0.08479728 0.119573206 0.17310844 -0.07514033 -0.054551225 -0.01903877 0.17727676 0.19681574 -0.16024566 -0.08492139 0.1720318 0.0020696789 0.079015 -0.071684785 0.08370533 -0.020950152 0.006650224 -0.0945142 0.07023217 0.11927417 0.028694414 -0.08468213 -0.12773399 0.17302036 0.107990846 0.0024678486 0.11976381 0.12866038 0.0051836646 0.054404814 0.133839 -0.0015311219 -0.17477772 -0.053349197 -0.028678034 -0.07889087 -0.055967536 0.038319774 0.036840558 -0.04859253 0.16505736 -0.061044082 0.011641228 0.026416363 0.021799827 -0.008143717 -0.113092974 -0.019426437 0.10663639 -0.031252496 0.10386694 -0.14415863 -0.09086607 -0.15571435 -0.16105092 -0.04919417 0.054630585 0.110757686 -0.18237038 0.02523254 0.12346572 0.04950821 -0.022166528 0.070157535 -0.077375345 -0.03637729 0.12556002 0.08157132 0.105710216 -0.16729823 0.05691246 0.14063892 -0.10451297 0.16703878 0.04599671 -0.120247826 0.06522572 -0.12373272 -0.10333434 0.16849262 -0.0408447 0.13722122 -0.11119844 -0.0029129034 0.06409114 0.110039145 0.16933554 -0.11943601 0.02410208 0.060625732 -0.21615908 -0.1360545 -0.035672687 0.10218761 0.16788691 0.054083966 0.087969795 0.14839394 -0.048365355 0.0015139618 -0.19250195 -0.096674085 -0.061936546 0.057673898 -0.14064269 -0.06791434 -0.15212105 -0.07273121 -0.019712955 -0.22789058
32 0.093580805 -0.013752977 0.13017508 0.109974176 -0.15190347 0.047575984 0.0013979651 -0.08436349 -0.09519234 0.2150764 0.14151606 -0.021701261 0.123786725 0.10769131 0.001579426 -0.035583105 0.020187994 -0.042037006 -0.076873526 0.1054206 0.16503617 -0.08257374 -0.039074473 0.0077629285 0.16760592 0.21293463 -0.17767195 -0.041444685 0.19185632 0.038970757 0.08643426 -0.09509708 0.09523679 -0.021642448 0.052981228 -0.10603962 0.100194916 0.15044747 0.08417922 -0.13476357 -0.09569247 0.14443257 0.11099515 -0.029649226 0.1443351 0.15890288 0.03513137 0.06547976 0.101509556 0.07820302 -0.19958161 -0.13084956 -0.0026306566 -0.11595192 -0.09337684 0.012321376 -0.03061478 -0.06660898 0.1580057 -0.046665873 0.03489884 0.037043057 0.016983993 0.009599614 -0.09682906 -0.00055232516 0.07087189 -0.03019771 0.08803654 -0.13541839 -0.11966831 -0.15446182 -0.14272305 -0.0028037666 0.07817724 0.14939648 -0.18543679 0.039178085 0.099976964 0.034542006 -0.04282303 0.030412184 -0.112765685 -0.02363492 0.12725227 0.05422873 0.07387857 -0.17016985 0.09283921 0.11578749 -0.095822655 0.11571229 0.022276929 -0.10591565 0.0061887857 -0.17388427 -0.05399557 0.16272186 -0.016725691 0.15728354 -0.14793573 -0.023683451 -0.0037514346 0.10650222 0.12470314 -0.15131241 -0.034076467 0.09293557 -0.25516406 -0.14893353 -0.014837065 0.048363633 0.17858328 0.11372967 0.07688617 0.1239618 -0.07450004 -0.0043241424 -0.17546725 -0.109916314 -0.06325245 0.024517916 -0.1476089 -0.095929146 -0.16750163 -0.03930714 0.059321657 -0.19553304
4 0.12655848 -0.060073882 0.14240277 0.106667474 -0.15687418 0.0513742 0.010071032 -0.06906861 -0.06378925 0.13281485 0.15032968 0.0175566 0.09212192 0.070365496 -0.019556472 -0.013644371 -0.0059546484 -0.011538114 -0.08083016 0.1274238 0.17871425 -0.07259321 -0.0563146 -0.019890914 0.17733699 0.19334142 -0.16373408 -0.08350842 0.17451821 0.0022682073 0.08064138 -0.07146482 0.0829334 -0.019329108 0.010209844 -0.09494346 0.06915851 0.120919935 0.030629192 -0.08265953 -0.12355509 0.17652176 0.10761721 0.00097359106 0.11209531 0.12629521 0.0024002134 0.054408688 0.12475572 -0.0041100616 -0.1728363 -0.055690967 -0.028231911 -0.08042338 -0.052450705 0.043202955 0.032112546 -0.044015776 0.15940242 -0.059566922 0.011343026 0.030970108 0.023799973 -0.009242613 -0.10780944 -0.023792667 0.10900842 -0.036316093 0.09219344 -0.13282353 -0.08434703 -0.15256917 -0.1582124 -0.049924888 0.049705535 0.11328514 -0.16796647 0.028198346 0.12238658 0.04148654 -0.022045435 0.07026481 -0.077533714 -0.033448715 0.121406235 0.07429384 0.10632321 -0.15258929 0.04669005 0.13563766 -0.10176738 0.16409482 0.04732501 -0.12187011 0.061969172 -0.11917955 -0.09922056 0.15451393 -0.038193714 0.13699584 -0.11274138 -0.0068196016 0.06259606 0.112395875 0.16546036 -0.114742845 0.028243698 0.053155545 -0.20896235 -0.1240227 -0.03714833 0.10655991 0.16168368 0.047514055 0.0906336 0.13826795 -0.05213353 0.00037182908 -0.18004824 -0.09926583 -0.06040727 0.05007078 -0.14158513 -0.065801196 -0.14298059 -0.06861827 -0.026664203 -0.21686843
24 0.115862854 -0.036374297 0.1464031 0.11718897 -0.16340949 0.05226714 0.0057061044 -0.08020675 -0.08313814 0.18954016 0.14370063 -0.010157737 0.111545876 0.090317056 -0.009237539 -0.029618997 0.010717973 -0.0311833 -0.08467889 0.111498356 0.1691878 -0.083726875 -0.050417256 -0.005100024 0.16938755 0.20248671 -0.17567255 -0.059212033 0.18975252 0.02566102 0.08294409 -0.09128117 0.09202213 -0.02120753 0.039402775 -0.10679519 0.09411266 0.14537877 0.06073304 -0.116642796 -0.10646664 0.15783373 0.11433979 -0.022720704 0.1343234 0.14961201 0.027154034 0.060957834 0.11033895 0.04495617 -0.19543685 -0.10159199 -0.011202169 -0.103640154 -0.07982061 0.01986442 -0.008896184 -0.062192217 0.15986055 -0.055095714 0.030475937 0.03874978 0.01135198 0.009916091 -0.10914832 -0.009595404 0.086865276 -0.030191854 0.09802322 -0.13335367 -0.10831812 -0.16215305 -0.14636847 -0.019125309 0.0651262 0.13856496 -0.18650009 0.036192752 0.11089049 0.03475018 -0.03845506 0.04297558 -0.10435664 -0.033111595 0.12879843 0.060296897 0.09482529 -0.16860558 0.072196245 0.12792861 -0.1023136 0.13514268 0.026128551 -0.10793686 0.025115645 -0.15462385 -0.06844877 0.16657996 -0.025202898 0.1491313 -0.13610753 -0.014373663 0.017462427 0.10852415 0.1459268 -0.14243466 -0.016781615 0.08375139 -0.24414992 -0.1477154 -0.022889521 0.07122801 0.17566153 0.09588504 0.07917817 0.13472211 -0.068066716 -0.0034387438 -0.18541498 -0.112015195 -0.057575706 0.039644517 -0.14801872 -0.086627856 -0.16454887 -0.05465111 0.026875673 -0.21260002
14 0.13295667 -0.061791327 0.1470088 0.11293146 -0.16662844 0.05348555 0.012062928 -0.06778346 -0.062100932 0.13578016 0.16230892 0.014597004 0.08983398 0.07404502 -0.021260586 -0.015011184 -0.007771516 -0.013326334 -0.091050796 0.123489216 0.18358898 -0.08063243 -0.06364593 -0.029200744 0.18247527 0.20188873 -0.16364542 -0.084515214 0.17749059 -0.0009065662 0.08340375 -0.07672639 0.0903921 -0.02342309 0.010163688 -0.09261465 0.07951202 0.11303411 0.027467554 -0.08514972 -0.126031 0.17661986 0.115966395 0.0039008684 0.1186935 0.13990147 -0.0007837545 0.05700626 0.12932079 -0.008407084 -0.17030141 -0.048474807 -0.03770653 -0.07178833 -0.049874794 0.04026772 0.044570282 -0.047680702 0.1672202 -0.05591166 0.01978341 0.033103872 0.02330161 -0.006735576 -0.11417922 -0.025080988 0.1063278 -0.02597398 0.10099168 -0.1362121 -0.08593765 -0.14980927 -0.15739466 -0.04862901 0.050043076 0.11233816 -0.17821968 0.031779997 0.11753201 0.048098896 -0.025552103 0.06925385 -0.07582319 -0.028876787 0.11374076 0.08228394 0.11657399 -0.1637782 0.05160977 0.14804049 -0.092170276 0.16778576 0.049685836 -0.12475268 0.06351675 -0.11385289 -0.11366652 0.16491309 -0.034594804 0.13387868 -0.10761215 0.005071506 0.07237844 0.11123984 0.17178366 -0.12078313 0.03275247 0.049668822 -0.20974462 -0.13176566 -0.032622505 0.10064835 0.15729272 0.041554373 0.09044018 0.14296968 -0.04856675 0.000546282 -0.19487485 -0.09297384 -0.055147424 0.05902376 -0.13845405 -0.06392218 -0.1499727 -0.069145806 -0.027261678 -0.22921759
30 0.090494744 -0.008634936 0.13104755 0.111590505 -0.13783562 0.054577805 -0.0061275023 -0.07641258 -0.09086274 0.22257139 0.12200603 -0.035441037 0.11663564 0.108835645 0.012319755 -0.03489964 0.020323925 -0.052591607 -0.07175394 0.093157835 0.14412852 -0.072432704 -0.031000776 0.017552977 0.13906808 0.18529797 -0.1654617 -0.03759614 0.18111253 0.040440507 0.07815207 -0.08951809 0.086034015 -0.012186703 0.069091186 -0.111629024 0.09057466 0.16423605 0.09005111 -0.13046935 -0.08988645 0.1290979 0.103814244 -0.03838352 0.14035107 0.14697848 0.04878164 0.059599094 0.082919635 0.088067554 -0.19159192 -0.13714895 0.0082352115 -0.1150481 -0.09493915 0.010018228 -0.055708963 -0.06703823 0.13857724 -0.041116334 0.041419134 0.0356488 0.0052959905 0.013037493 -0.09685883 0.0036465414 0.06189482 -0.02593465 0.074404456 -0.12572268 -0.11456638 -0.1615966 -0.13242121 -0.0024853826 0.07427408 0.13806127 -0.16582814 0.044706687 0.097540446 0.026518907 -0.03841392 0.019894402 -0.10999417 -0.031582765 0.1283217 0.031460248 0.06217921 -0.15715665 0.090188384 0.093786724 -0.09422694 0.099884376 0.014090489 -0.08607645 -0.014005542 -0.1878233 -0.030000553 0.14592603 -0.015010924 0.14698909 -0.15722793 -0.026613818 -0.031109717 0.102612205 0.10576853 -0.14518894 -0.0633071 0.09783773 -0.25741944 -0.14370745 -0.016427135 0.037425835 0.16304608 0.13452072 0.07150557 0.102661364 -0.08713585 -0.0147267645 -0.14944229 -0.11485675 -0.057412088 0.01624927 -0.1346616 -0.097598866 -0.15994306 -0.0335881 0.07558294 -0.1697924
6 0.16914947 -0.1146772 0.16851546 0.10119819 -0.1830312 0.034144804 0.03649282 -0.06657792 -0.028780455 0.050729297 0.21205619 0.06391779 0.05595899 0.036510684 -0.05989774 0.0017873788 -0.03703297 0.035591464 -0.10489788 0.15310124 0.21172547 -0.08458288 -0.10613973 -0.09112563 0.23375572 0.21681835 -0.14488705 -0.12132266 0.17858241 -0.04241112 0.09493298 -0.060685143 0.09209813 -0.039177284 -0.058267854 -0.060530256 0.058604363 0.044181664 -0.049636047 -0.025814768 -0.14791217 0.2156917 0.12203536 0.040393032 0.088527694 0.12749541 -0.059701245 0.053319428 0.1763155 -0.11213347 -0.12253076 0.0616741 -0.0767682 -0.025422456 0.015992198 0.057304792 0.14904658 -0.012164468 0.20765992 -0.072609484 -0.0017927876 0.018259889 0.032887165 -0.0152517 -0.124325335 -0.04348559 0.15484342 -0.018842153 0.12823771 -0.12781473 -0.04141616 -0.115546025 -0.17233671 -0.08729443 0.026405383 0.07218316 -0.20140673 0.015897855 0.11903491 0.075895526 -0.01818438 0.12353361 -0.04204484 -0.018364144 0.07179847 0.15110005 0.17705736 -0.16976726 0.010416453 0.19600035 -0.07653822 0.22692068 0.07973208 -0.15782517 0.16527337 -0.015003964 -0.19325064 0.17186286 -0.060012408 0.10110275 -0.04515295 0.03629393 0.18750666 0.1263019 0.24124838 -0.089085974 0.15151873 -0.008166394 -0.15494373 -0.10738584 -0.053228144 0.1570092 0.14927222 -0.06559033 0.10086026 0.19335021 0.010875394 0.012158891 -0.23592156 -0.04783375 -0.03949206 0.105219305 -0.14094134 -0.03880538 -0.1252278 -0.105956644 -0.13225943 -0.2954676
28 0.11261431 -0.030222198 0.13625512 0.11328858 -0.15782142 0.050104838 0.006164107 -0.077925086 -0.08013532 0.18305781 0.1454598 -0.0069391555 0.10577994 0.094362974 -0.010291546 -0.027031662 0.009910943 -0.026680911 -0.08179945 0.114125796 0.17052644 -0.07539924 -0.04459013 -0.0035060295 0.1673818 0.19914113 -0.17204714 -0.061598107 0.18487912 0.025780134 0.087067805 -0.087280095 0.08801186 -0.015433164 0.040148254 -0.10414398 0.08753433 0.13748674 0.062273398 -0.11332034 -0.107455544 0.15608269 0.10709807 -0.016915282 0.13151479 0.14693372 0.022560565 0.057258114 0.108971976 0.04391589 -0.1846932 -0.0986191 -0.014917133 -0.098852016 -0.07406843 0.024424216 -0.007925212 -0.05764506 0.15817474 -0.052589107 0.026836842 0.034351334 0.011819515 0.008391005 -0.103775114 -0.011734122 0.08430615 -0.027951095 0.08902741 -0.13199304 -0.10749698 -0.1542584 -0.14212856 -0.020977614 0.06633654 0.13143986 -0.17748053 0.040132474 0.109812856 0.03643469 -0.037446562 0.046760872 -0.098653756 -0.03241621 0.12205752 0.060950954 0.09024569 -0.16643895 0.073419 0.1245482 -0.09907549 0.13268217 0.033406205 -0.10923819 0.022496393 -0.14901645 -0.07451873 0.16016331 -0.02307586 0.14564312 -0.13506794 -0.014642631 0.020402268 0.10932033 0.13711902 -0.13543904 -0.011363081 0.07886259 -0.23539457 -0.13886498 -0.026904125 0.06773601 0.16974297 0.09152305 0.08112536 0.13017009 -0.063227996 -0.0003404303 -0.17985836 -0.10423823 -0.05425808 0.04115863 -0.14399503 -0.08000513 -0.15292703 -0.05273768 0.021764768 -0.20712125
7 0.16325141 -0.10083667 0.16465585 0.10192299 -0.17944415 0.03460603 0.037078958 -0.06386976 -0.03369041 0.05590204 0.20338947 0.05043867 0.058365297 0.03543784 -0.05251424 -0.0005023475 -0.030174421 0.026924169 -0.10335188 0.14360142 0.19877997 -0.08595888 -0.100832544 -0.08326838 0.22345446 0.20582378 -0.1413091 -0.11319891 0.17412293 -0.030946186 0.08877016 -0.05867072 0.08769952 -0.03666438 -0.04450836 -0.06734624 0.06321597 0.055862922 -0.03991964 -0.031277552 -0.14541581 0.20876822 0.118713014 0.0401887 0.09301401 0.124651134 -0.05788801 0.049574822 0.16511759 -0.09673417 -0.1205563 0.042437892 -0.06794992 -0.027279532 0.004817267 0.04861438 0.13588595 -0.013894423 0.2013408 -0.06557591 0.0050612553 0.02060098 0.0295478 -0.0092443805 -0.1224053 -0.03629911 0.14021507 -0.021791276 0.12418282 -0.1294412 -0.04684619 -0.11337827 -0.1627204 -0.081970885 0.024996374 0.072531 -0.20266707 0.020203358 0.1179456 0.07347037 -0.019591998 0.11067521 -0.04835474 -0.016582685 0.07276808 0.1438528 0.16762538 -0.17112029 0.01952768 0.18092117 -0.0809284 0.2203863 0.07010918 -0.1529745 0.15444171 -0.021818912 -0.18036814 0.16347095 -0.06286167 0.10240557 -0.057722818 0.033297136 0.17148444 0.122898035 0.22975907 -0.09672144 0.13412005 -0.0018024456 -0.16532354 -0.11078067 -0.04835786 0.14646918 0.1511229 -0.048882484 0.098569795 0.18448216 0.0051934975 0.013186433 -0.22970118 -0.05306368 -0.039594274 0.10011016 -0.14135233 -0.04828183 -0.13155434 -0.10233629 -0.112327814 -0.2851726
9 0.111950494 -0.040501505 0.13770486 0.105245605 -0.15118308 0.054957043 0.0061492147 -0.07283241 -0.078244075 0.16962203 0.14054161 -0.002004643 0.101982735 0.08904031 -0.008881947 -0.026693301 0.0026156509 -0.024717381 -0.083200626 0.112335116 0.16855909 -0.077029616 -0.044325527 -0.010602281 0.16964231 0.20078449 -0.16975428 -0.06100465 0.17723604 0.020166555 0.08535063 -0.0834436 0.08242656 -0.018076556 0.029435612 -0.100870706 0.08164723 0.13133949 0.050944604 -0.10594508 -0.110080145 0.1605471 0.10430932 -0.020282077 0.12467742 0.13594395 0.021424891 0.05891295 0.11067483 0.03359529 -0.17638913 -0.0842899 -0.018550035 -0.089960806 -0.07121246 0.025765466 0.0024713897 -0.058325004 0.1561398 -0.05410347 0.024955513 0.032482203 0.011948744 0.0060144938 -0.103801064 -0.012980687 0.0873302 -0.030984996 0.09286075 -0.13185449 -0.09804605 -0.14926764 -0.14502491 -0.028471326 0.060639348 0.12424278 -0.17341532 0.034467854 0.106192544 0.042406186 -0.035719864 0.048318468 -0.092243806 -0.034077663 0.11744192 0.06804903 0.08939804 -0.16175982 0.06276352 0.12199967 -0.094738066 0.13825412 0.036724243 -0.11092622 0.033927877 -0.1450381 -0.076047465 0.15748063 -0.02729945 0.14265952 -0.12647553 -0.010403378 0.027990738 0.10738411 0.14680289 -0.12706918 -0.007269451 0.072611764 -0.22637339 -0.1349051 -0.023997981 0.0780932 0.16396624 0.08073014 0.08113966 0.12748668 -0.06157607 -0.005271001 -0.17718494 -0.10584721 -0.05445188 0.040546376 -0.13905996 -0.07438996 -0.15453877 -0.053548384 0.0112150945 -0.20800593
8 0.13072094 -0.059958663 0.15734331 0.108426444 -0.17021057 0.056277614 0.010546434 -0.07240381 -0.06839086 0.14518826 0.16223654 0.017903041 0.09604902 0.08026845 -0.017398098 -0.020423915 -0.008233518 -0.008220327 -0.085089035 0.13380216 0.18608673 -0.080227084 -0.06402109 -0.025956828 0.18756382 0.21737492 -0.17298171 -0.09144673 0.19031657 0.0037510425 0.09065524 -0.0777066 0.09267893 -0.019151889 0.0047235806 -0.09490202 0.075816706 0.122291446 0.026284343 -0.085231 -0.13167793 0.18818083 0.112684876 -0.0029222385 0.115959 0.13312228 0.0058859577 0.054763146 0.13975398 -0.008019498 -0.17696062 -0.05524214 -0.030009948 -0.08162799 -0.05486296 0.044753715 0.04482867 -0.048217982 0.17086452 -0.05590301 0.015745785 0.0331399 0.025966179 -0.00810487 -0.11129588 -0.025348185 0.11407425 -0.03162081 0.09677286 -0.14355017 -0.08897378 -0.15805258 -0.16210467 -0.05163287 0.054748036 0.11695891 -0.18124238 0.03305123 0.12229754 0.05097146 -0.026101718 0.069827124 -0.08169437 -0.033410925 0.12665161 0.08550567 0.11435231 -0.16563085 0.049447913 0.14302684 -0.10088267 0.16946726 0.04807784 -0.12631677 0.06347215 -0.119229764 -0.11118844 0.16845968 -0.043092854 0.14017034 -0.11119003 -0.00535641 0.07145818 0.11627232 0.17573461 -0.12155798 0.033145536 0.060433418 -0.21270111 -0.1285576 -0.035660543 0.109980255 0.16557415 0.045739364 0.08876759 0.15087502 -0.04981752 0.0027477127 -0.19612126 -0.10222469 -0.061571747 0.05977434 -0.1488508 -0.06807063 -0.1558685 -0.07353968 -0.027436526 -0.2334149
25 0.09709339 -0.018251881 0.13028595 0.11001603 -0.15293467 0.047535766 -0.0006609657 -0.07907648 -0.08468381 0.2015334 0.13716069 -0.024460338 0.115506984 0.09841366 0.003684591 -0.03560604 0.021591974 -0.03647141 -0.07349533 0.098696075 0.16012385 -0.08109075 -0.04147403 0.010357834 0.16335347 0.20405367 -0.16827786 -0.04665136 0.18612681 0.03408701 0.085821025 -0.08340354 0.08959882 -0.014037029 0.04942805 -0.10518016 0.095139906 0.14488755 0.07927352 -0.12376487 -0.09516395 0.14045706 0.1076141 -0.0272754 0.13254257 0.1511828 0.034159023 0.05846664 0.102817535 0.06628277 -0.19003993 -0.11618069 -0.0052373954 -0.107166424 -0.08719665 0.017970249 -0.028646411 -0.06543208 0.15472242 -0.04265443 0.03574717 0.036478486 0.018804057 0.01090155 -0.100600466 -0.0068591526 0.07628686 -0.032789577 0.082127355 -0.12836389 -0.11220358 -0.15528663 -0.14343143 -0.010685081 0.072566554 0.14030994 -0.1751013 0.034241755 0.10128701 0.027180072 -0.041182987 0.038619284 -0.107351586 -0.02857479 0.12469919 0.051647954 0.078679316 -0.16239077 0.086234905 0.113995366 -0.091458224 0.11789007 0.017734969 -0.098698564 0.011589351 -0.16358104 -0.051359896 0.15469563 -0.020772267 0.14664729 -0.14206842 -0.018013218 0.0022768818 0.108397126 0.1233652 -0.13988133 -0.03227668 0.09384095 -0.24631426 -0.14414309 -0.02043849 0.05622029 0.17140463 0.110069536 0.07896084 0.11922137 -0.07450621 -0.0053337705 -0.17103595 -0.10564286 -0.06094024 0.021789465 -0.14323762 -0.0834135 -0.1629257 -0.043350305 0.04861941 -0.1911795
11 0.1463135 -0.08259659 0.15455166 0.10453468 -0.16886923 0.03367507 0.026119716 -0.06872013 -0.042749196 0.09373885 0.1814118 0.03336694 0.07240269 0.04954246 -0.0338047 -0.0068195667 -0.011281288 0.007644114 -0.0966552 0.12649412 0.19429035 -0.08861626 -0.08646869 -0.058923364 0.20390293 0.20566335 -0.148037 -0.09352967 0.17867951 -0.020471266 0.08661462 -0.06983351 0.09321119 -0.034769304 -0.024832569 -0.07630068 0.07605719 0.07781332 -0.0109701045 -0.056262385 -0.13666165 0.18618353 0.119606584 0.02385653 0.108008176 0.13845986 -0.036529988 0.051984437 0.15247661 -0.058416016 -0.13877806 0.007116352 -0.055224422 -0.045530897 -0.01899531 0.042471744 0.0943483 -0.022154203 0.18467852 -0.06106531 0.009978344 0.029670993 0.033497274 -0.010618147 -0.1151427 -0.023659866 0.12477277 -0.018782265 0.115790725 -0.12919913 -0.06389559 -0.123268954 -0.15852743 -0.06469071 0.034615487 0.09017836 -0.1953401 0.025462924 0.11400284 0.06632795 -0.019281318 0.091715634 -0.05472938 -0.016378623 0.08489143 0.11879668 0.14280894 -0.16448253 0.035800047 0.16470535 -0.07951083 0.19032675 0.059617065 -0.14382751 0.1147898 -0.057310235 -0.15184473 0.16950338 -0.049105484 0.11291666 -0.07472462 0.020469269 0.13017608 0.11366174 0.20086573 -0.11107957 0.09198351 0.028058441 -0.18044958 -0.118934385 -0.0347433 0.1143347 0.15311514 -0.013964745 0.09732325 0.16361676 -0.018282022 0.007813704 -0.21082625 -0.06751496 -0.041872803 0.07832904 -0.13773659 -0.05509135 -0.13331895 -0.083433814 -0.06995569 -0.25842932
29 0.11674724 -0.037798215 0.15061307 0.11222794 -0.17063788 0.05545228 -0.0016594297 -0.08268091 -0.087709285 0.19858626 0.15112914 -0.011069595 0.11777493 0.096142866 -0.010295421 -0.029008834 0.008087623 -0.028903905 -0.0837843 0.11764198 0.18542936 -0.08308102 -0.0524569 -0.006020708 0.17782392 0.21291915 -0.18155542 -0.059890974 0.19614194 0.021164894 0.08838371 -0.092934586 0.09825498 -0.015406839 0.042925235 -0.108181134 0.09468441 0.14696194 0.058541976 -0.11771502 -0.113923095 0.16505286 0.119241245 -0.02193954 0.13668665 0.1488392 0.030041087 0.05970893 0.11062677 0.043893125 -0.19635226 -0.09744219 -0.017787129 -0.10019546 -0.08252889 0.024467945 -0.0050566136 -0.06366999 0.1649535 -0.05388526 0.026902165 0.03794589 0.013424017 0.0051530297 -0.11091992 -0.010135645 0.087433435 -0.028401233 0.091483876 -0.13281707 -0.1127288 -0.1627538 -0.14944524 -0.025899112 0.06620452 0.13904834 -0.1777864 0.0391231 0.11269228 0.037342757 -0.040881485 0.046515472 -0.10043952 -0.028923512 0.13000661 0.0646743 0.09622565 -0.16762516 0.075022526 0.13333063 -0.099001825 0.14030218 0.031217754 -0.11676653 0.026131792 -0.16167621 -0.07028943 0.16782358 -0.02322827 0.14764915 -0.14074859 -0.014329812 0.017409036 0.11426101 0.14298671 -0.14140819 -0.0076866625 0.08688991 -0.2460708 -0.14112245 -0.021489665 0.07620577 0.17603563 0.094812095 0.08338268 0.13439125 -0.07026781 -0.009042622 -0.18335474 -0.11326241 -0.060700543 0.04105874 -0.15012042 -0.08192949 -0.1585772 -0.051510926 0.020478059 -0.21214214
5 0.16147484 -0.098732084 0.16237381 0.10593262 -0.17406903 0.033410896 0.030773152 -0.065405585 -0.038983416 0.07352569 0.19733675 0.04937471 0.054165736 0.044094183 -0.04833692 0.0039442675 -0.028341856 0.020980163 -0.09494484 0.13239639 0.19221285 -0.083827525 -0.095330425 -0.07455926 0.21233092 0.20403098 -0.1435186 -0.1105912 0.16977999 -0.031979375 0.09044439 -0.0570974 0.08750235 -0.038766135 -0.04593126 -0.067961946 0.063510515 0.05687325 -0.02528549 -0.038110882 -0.13634157 0.1930539 0.116767965 0.036555193 0.09318209 0.12597707 -0.05031078 0.050739057 0.1552703 -0.085707575 -0.1278671 0.037321832 -0.06756918 -0.035169475 0.0003073875 0.04934855 0.12033068 -0.01361145 0.19116431 -0.059570402 0.0025040423 0.02409836 0.031316027 -0.0072159986 -0.113741 -0.02943922 0.13470694 -0.020051941 0.11938006 -0.12966749 -0.048531804 -0.1159294 -0.15982057 -0.074363686 0.028788924 0.079346895 -0.1947077 0.021583073 0.1136572 0.07351323 -0.022690719 0.10156626 -0.044707276 -0.01622676 0.07706905 0.12717591 0.15088952 -0.16635066 0.021960882 0.17632565 -0.07773908 0.20656557 0.07061953 -0.14915529 0.14104044 -0.035278313 -0.17274763 0.16074787 -0.05546302 0.10020127 -0.054342367 0.02682835 0.15945926 0.1147405 0.21493712 -0.09189512 0.123073824 0.0047210604 -0.16467689 -0.114068665 -0.042237047 0.13186288 0.14819267 -0.041242324 0.09446157 0.17684144 -0.00014416361 0.012220379 -0.21907976 -0.05413781 -0.039256744 0.091136746 -0.13104698 -0.048972465 -0.12193287 -0.0921848 -0.1043435 -0.26395687
26 0.10020923 -0.014946417 0.13997653 0.112281784 -0.16057003 0.047188647 -0.002360818 -0.08594957 -0.09391754 0.20940255 0.14244494 -0.020851033 0.12540707 0.10400276 0.0039724377 -0.041893207 0.023401277 -0.041552752 -0.08010488 0.104194485 0.17926559 -0.08974916 -0.04350879 0.0036144075 0.17787714 0.21880415 -0.18288752 -0.047328528 0.20124386 0.033993278 0.09131764 -0.09320725 0.09884832 -0.023786934 0.05562435 -0.110684246 0.10504493 0.15173976 0.08007985 -0.13112687 -0.10038502 0.14832273 0.11954691 -0.03482947 0.14700672 0.1655342 0.03630711 0.06746998 0.10652359 0.07545365 -0.20664705 -0.13011791 -0.006645786 -0.11240566 -0.097253695 0.020093301 -0.02966927 -0.06368437 0.1669651 -0.048092198 0.032335646 0.038122393 0.021094522 0.0127989445 -0.10124179 0.00042776685 0.08051054 -0.032243818 0.090463325 -0.13395278 -0.117690235 -0.16164231 -0.14453204 -0.010759548 0.07400227 0.15278134 -0.19064867 0.044482555 0.10273488 0.03414966 -0.050442193 0.03981956 -0.108849265 -0.023187654 0.12665607 0.052604157 0.08840412 -0.1755874 0.08973978 0.12440858 -0.09306666 0.12054299 0.022244541 -0.11197227 0.0077668065 -0.17432858 -0.05353777 0.17189872 -0.017287392 0.16106895 -0.14443517 -0.02642521 -0.0026232563 0.11464713 0.12736946 -0.15432496 -0.026384193 0.1008302 -0.26094353 -0.15287396 -0.019807579 0.053326137 0.17780781 0.11575481 0.0845195 0.12731162 -0.08092467 -0.005842958 -0.18294579 -0.10859777 -0.06097985 0.027428467 -0.1454289 -0.08918446 -0.17069711 -0.041837417 0.046366643 -0.20375088
20 0.12580359 -0.04400279 0.143619 0.113177516 -0.15381742 0.05368632 0.00096376066 -0.06323285 -0.06573135 0.15726551 0.14922252 0.005869878 0.09524336 0.0794784 -0.008337518 -0.019538378 -0.0012678977 -0.016611459 -0.07970371 0.11265845 0.16426338 -0.07016308 -0.055019166 -0.009615639 0.16022843 0.19054545 -0.15556729 -0.070606776 0.17320223 0.013089381 0.07674719 -0.076125674 0.08422534 -0.019542292 0.019034682 -0.09930983 0.076458685 0.12617432 0.04434594 -0.09320681 -0.113438055 0.16071829 0.101515666 -0.0040013264 0.1183037 0.13360685 0.013848774 0.048828855 0.116978444 0.012388859 -0.16915628 -0.069720566 -0.019529501 -0.081021786 -0.06417944 0.033772305 0.016705796 -0.052536998 0.15688182 -0.052076317 0.019721355 0.028211568 0.017035514 -0.0016333584 -0.10348356 -0.019143632 0.09370737 -0.032849006 0.09228603 -0.13312235 -0.08946305 -0.15312095 -0.14928673 -0.031779043 0.050358076 0.116222605 -0.17147462 0.030203545 0.11438675 0.038358793 -0.029364934 0.058736756 -0.079651885 -0.03484115 0.12043013 0.06502742 0.09535857 -0.15340646 0.059553616 0.1230848 -0.096105814 0.14401492 0.0405311 -0.10476285 0.041308008 -0.13333012 -0.086195745 0.15250649 -0.031963956 0.13578713 -0.114215046 -0.005613975 0.042950276 0.107128486 0.1481642 -0.11882496 0.008954098 0.067164436 -0.21480826 -0.1276158 -0.023992907 0.08609438 0.15572806 0.06953998 0.08043649 0.13196601 -0.052305058 -0.0047068526 -0.16951677 -0.094802454 -0.053939104 0.043355998 -0.13654995 -0.071382426 -0.14684123 -0.059960216 0.00277925 -0.20758751
31 0.1332083 -0.055155482 0.16134457 0.11499522 -0.16980939 0.060933698 0.008583636 -0.07328505 -0.07508562 0.16340414 0.16134824 0.004230543 0.09561262 0.08217157 -0.011666732 -0.017433383 0.0025855268 -0.017137405 -0.08880678 0.12037523 0.17364568 -0.073753946 -0.05906681 -0.013604346 0.17274626 0.20067637 -0.16845831 -0.07118877 0.18426377 0.008202202 0.08009236 -0.08360905 0.08538058 -0.015061973 0.021636602 -0.10569118 0.07783491 0.13417317 0.042197514 -0.09514848 -0.120742865 0.16958198 0.10810255 -0.008208169 0.12294393 0.14108168 0.009939221 0.05490797 0.12317772 0.011524866 -0.17509064 -0.06665414 -0.023514833 -0.08056958 -0.06616862 0.031752046 0.019874841 -0.05068953 0.16341084 -0.058641147 0.018505286 0.030645715 0.018059528 -0.0047822245 -0.11627421 -0.015971571 0.09787473 -0.032643706 0.09337586 -0.13455695 -0.093537115 -0.15935016 -0.152943 -0.041588046 0.05589795 0.119504556 -0.17608725 0.03398127 0.116268 0.043476693 -0.027792301 0.05928463 -0.08376266 -0.03665014 0.1250908 0.07282498 0.10045482 -0.16725318 0.062294453 0.12990858 -0.10280287 0.15212195 0.04466026 -0.115347356 0.048940018 -0.13777667 -0.08687171 0.15555891 -0.036947455 0.14003061 -0.11828807 -0.00508608 0.049189143 0.11526465 0.1620055 -0.13003618 0.012836655 0.069174625 -0.22488272 -0.13270274 -0.03309651 0.08800526 0.16501513 0.0673631 0.08746905 0.13791898 -0.05879364 -0.00559561 -0.17974038 -0.1052734 -0.053933088 0.04706593 -0.14150226 -0.07510903 -0.15423067 -0.06374422 -0.0020387657 -0.22178012
21 0.11372031 -0.028655326 0.13794577 0.11350252 -0.14884698 0.059417207 -0.0054281503 -0.06987908 -0.075953126 0.18763383 0.13357957 -0.016910344 0.10367398 0.09294333 -0.0037203142 -0.025202623 0.010201397 -0.037794843 -0.0785725 0.10562477 0.15585285 -0.07032262 -0.039149404 0.0031730337 0.15692276 0.19234562 -0.16134225 -0.05153516 0.17881198 0.02453688 0.08018017 -0.08396991 0.0870893 -0.015036967 0.042842187 -0.10598768 0.08643507 0.14469165 0.062824115 -0.11091549 -0.108040236 0.14596345 0.1012856 -0.022606358 0.12856998 0.13897695 0.024107516 0.05398983 0.104059815 0.043297533 -0.18140095 -0.100332566 -0.010262033 -0.09631547 -0.07356263 0.02367989 -0.013695581 -0.05593208 0.15381092 -0.048788503 0.03011737 0.034768373 0.011465581 0.0012266396 -0.106495336 -0.01243212 0.08113121 -0.029844934 0.08971426 -0.12559599 -0.10297382 -0.1540336 -0.1379435 -0.015922846 0.06423032 0.12446483 -0.16692783 0.039679896 0.10594491 0.03401761 -0.02977311 0.039730735 -0.09701898 -0.0366685 0.12584773 0.056064025 0.07859898 -0.15305051 0.07183216 0.11239014 -0.10125708 0.1271428 0.026052397 -0.104233734 0.015533949 -0.15543692 -0.061478365 0.1432927 -0.022296237 0.1365254 -0.13528973 -0.015842663 0.009212584 0.09977806 0.13589388 -0.13617769 -0.024734247 0.07772783 -0.23443022 -0.1353388 -0.020159442 0.06569176 0.15762208 0.09723178 0.07719331 0.12090995 -0.06420391 -0.00697364 -0.16600157 -0.107641906 -0.059820406 0.031749226 -0.14218046 -0.08641871 -0.15584601 -0.047488056 0.035397533 -0.19425984
23 0.11324339 -0.03518488 0.14877087 0.11299815 -0.15714397 0.06225186 0.0023260633 -0.07280051 -0.08484055 0.19345798 0.13993587 -0.014105491 0.10540006 0.09310319 -0.0013668473 -0.021673672 0.008696996 -0.036381584 -0.07724554 0.10816114 0.16379532 -0.07224449 -0.045025177 -0.00032015124 0.15800035 0.19524577 -0.16534397 -0.059497986 0.18044873 0.029100124 0.07845789 -0.08472917 0.08123531 -0.012335023 0.04749114 -0.10662752 0.08055732 0.15050232 0.061906632 -0.109805346 -0.10782248 0.15627743 0.107477896 -0.021087829 0.13300821 0.13446458 0.031129275 0.056024347 0.101783454 0.048620075 -0.18435498 -0.10165917 -0.010845297 -0.10068664 -0.083273716 0.020202726 -0.01495103 -0.059921455 0.1553256 -0.05081554 0.0276796 0.03538338 0.009902505 0.005364934 -0.10717859 -0.011114486 0.07820543 -0.03424339 0.09111125 -0.1322567 -0.10341172 -0.15698498 -0.14022364 -0.023680417 0.064476445 0.124263935 -0.17381196 0.0366234 0.114327304 0.037113864 -0.031182038 0.039364923 -0.101097636 -0.036589388 0.13053466 0.05795234 0.08219817 -0.16323957 0.07031884 0.116101146 -0.102962285 0.13193049 0.029471857 -0.10294893 0.0163365 -0.16556717 -0.061272215 0.1498635 -0.029439982 0.14800337 -0.14047453 -0.013701696 0.006017675 0.10388289 0.13497466 -0.1330004 -0.026559992 0.082709454 -0.24458447 -0.13443676 -0.02703312 0.073176496 0.16270266 0.09767166 0.07463297 0.1265282 -0.06737985 -0.006719728 -0.17092788 -0.116876036 -0.05863091 0.037933223 -0.14596169 -0.086874016 -0.16109194 -0.054194823 0.03716277 -0.20179835
27 0.1105667 -0.027840797 0.14319852 0.115921356 -0.1577401 0.059312206 -0.0044897106 -0.07747234 -0.08731981 0.20626281 0.14154975 -0.016609278 0.11133813 0.09894202 -0.0036379318 -0.030067522 0.016421827 -0.038897045 -0.07853578 0.106942974 0.1678039 -0.07514306 -0.037889272 0.002973749 0.15709469 0.19579569 -0.17611969 -0.052906025 0.18345031 0.030873058 0.0796558 -0.088250175 0.08735787 -0.017152067 0.05248146 -0.11288418 0.09209222 0.15117398 0.07264618 -0.12348081 -0.10618096 0.14909418 0.111159205 -0.022106534 0.13838796 0.147594 0.030139357 0.05999803 0.10410802 0.05535861 -0.18889987 -0.112622626 -0.005893605 -0.10013123 -0.08607657 0.018887563 -0.01792406 -0.062275235 0.15099639 -0.05035992 0.02867011 0.040759422 0.011762967 0.0027967186 -0.10632712 -0.007957136 0.07477166 -0.028854651 0.08689151 -0.13755871 -0.11118163 -0.16103913 -0.14568058 -0.013658629 0.07066862 0.13470912 -0.17326826 0.043365933 0.115088895 0.032329842 -0.033764172 0.036999837 -0.103710145 -0.039289776 0.13075395 0.051391914 0.07687725 -0.16179228 0.07730126 0.11335932 -0.10484415 0.12561722 0.024260087 -0.10576898 0.011346965 -0.16914144 -0.05451361 0.15299937 -0.025217706 0.14628701 -0.14491807 -0.013773391 -0.0022327234 0.10756686 0.13343216 -0.14238721 -0.034517076 0.089955546 -0.2502734 -0.13763711 -0.02010341 0.062164962 0.1653941 0.10378086 0.07553965 0.12476214 -0.075431466 -0.008658337 -0.17115808 -0.116819665 -0.055976238 0.035831515 -0.14593011 -0.08787721 -0.16327307 -0.050778594 0.042662673 -0.19815591
18 0.13307118 -0.06164958 0.15049317 0.10542031 -0.15563326 0.050250992 0.010642737 -0.06850934 -0.057134867 0.12377282 0.16268235 0.02287844 0.08316772 0.06796264 -0.024360407 -0.015633227 -0.007758006 -0.0076869302 -0.08512736 0.12613992 0.1811571 -0.07692287 -0.06688543 -0.03293918 0.1869574 0.20465858 -0.16440749 -0.08817134 0.18056644 -0.0052192714 0.0806387 -0.0711463 0.09229571 -0.018225769 0.0023750034 -0.0910577 0.077444926 0.11542839 0.018394964 -0.076348566 -0.13049465 0.18435493 0.10857475 0.007394224 0.11269186 0.1314951 -0.0039773644 0.050548486 0.13945705 -0.019151123 -0.16382533 -0.038830698 -0.035332717 -0.07046214 -0.045838226 0.043859012 0.051345643 -0.04157288 0.16720381 -0.05967259 0.0114020305 0.030921051 0.028103838 -0.008773493 -0.112729035 -0.023386173 0.11539486 -0.029760215 0.10265668 -0.14038636 -0.080748275 -0.15047665 -0.15982552 -0.0534555 0.045054853 0.10655678 -0.17686531 0.028220281 0.117891975 0.052260317 -0.019725787 0.07503863 -0.0729709 -0.030397067 0.11396851 0.08990951 0.11868234 -0.15944885 0.046027515 0.1470892 -0.09497545 0.16704552 0.049328737 -0.1250153 0.07263179 -0.10547471 -0.11307905 0.16505429 -0.043723673 0.12969889 -0.102310695 0.0020041366 0.07893204 0.11116327 0.170432 -0.1164856 0.043838516 0.051666085 -0.20617665 -0.1255285 -0.03181963 0.109523766 0.15891926 0.03354158 0.09235553 0.14418219 -0.04671946 0.0025867454 -0.19427337 -0.09026882 -0.05326873 0.05559102 -0.137163 -0.0677313 -0.14739384 -0.06979094 -0.030277112 -0.23344393
13 0.1332007 -0.064530075 0.1499797 0.10742077 -0.17161392 0.05144147 0.011714776 -0.07169268 -0.06058256 0.13951647 0.1625294 0.016786588 0.095677055 0.07219949 -0.022336263 -0.018291151 -0.008571557 -0.009687294 -0.09035478 0.12598523 0.18585877 -0.079664424 -0.06704368 -0.027806979 0.19101709 0.20995095 -0.17169915 -0.08424735 0.18766347 0.0031306837 0.09217497 -0.078161925 0.09474904 -0.027505828 0.003098854 -0.089705355 0.07887175 0.11390472 0.022104222 -0.084950514 -0.12468215 0.18028398 0.11653082 -0.0032140352 0.124021344 0.14490676 -0.002049169 0.056010127 0.13977933 -0.011179614 -0.17580406 -0.046116985 -0.037477836 -0.07983878 -0.054098092 0.03778748 0.044825092 -0.047084175 0.18059427 -0.06027546 0.016144507 0.03265216 0.022807634 -0.0075797657 -0.11557246 -0.025430117 0.108526096 -0.028461311 0.10164224 -0.13657837 -0.08813869 -0.15007164 -0.16481553 -0.045710467 0.050432343 0.11646594 -0.19272068 0.035893448 0.12175539 0.050509047 -0.02782943 0.07645356 -0.07950939 -0.03173865 0.119072855 0.09571475 0.1248021 -0.17285417 0.05087503 0.15292507 -0.09582209 0.17105496 0.050308164 -0.12865122 0.07571617 -0.11057433 -0.11951981 0.16919076 -0.040717006 0.14000149 -0.10619691 -0.002136703 0.077828154 0.11889637 0.17457393 -0.12250046 0.039397478 0.055185057 -0.21387462 -0.13251865 -0.030506762 0.102285266 0.17045408 0.044541627 0.09310695 0.14956312 -0.04610295 -4.0369217e-05 -0.20003633 -0.094564065 -0.05793662 0.059762057 -0.14918718 -0.06860313 -0.15690412 -0.07503582 -0.028639894 -0.24232306
15 0.11421768 -0.024659991 0.15448263 0.121727034 -0.1651353 0.060753234 -0.004171289 -0.084892705 -0.098738045 0.21829511 0.14508335 -0.019474616 0.117724836 0.10444563 -0.0020076972 -0.03374026 0.017151445 -0.04250307 -0.07966882 0.11358045 0.17250231 -0.07947349 -0.03851016 0.009330761 0.16138881 0.2074449 -0.18204269 -0.053578198 0.18742892 0.031081695 0.08542296 -0.09679477 0.09181928 -0.013789916 0.055682946 -0.117855236 0.094413 0.16339296 0.08047004 -0.13008742 -0.10743977 0.15462203 0.11275626 -0.02918811 0.13901891 0.1525514 0.03566666 0.059678618 0.1056505 0.06927617 -0.20417348 -0.123197705 -0.0072501907 -0.11419931 -0.09533124 0.017655011 -0.027608344 -0.07068611 0.15954682 -0.050234776 0.03554306 0.04155053 0.009395605 0.011066346 -0.11157178 -0.008542133 0.07588185 -0.03394256 0.08773416 -0.13728565 -0.11531294 -0.1702281 -0.14577428 -0.01721359 0.071742296 0.13996084 -0.17441694 0.04265218 0.11661399 0.030620895 -0.035079118 0.031220244 -0.10698513 -0.040994927 0.14048536 0.04431439 0.07983634 -0.17020138 0.08205461 0.11427154 -0.10889994 0.12814014 0.02149035 -0.10352842 0.001875924 -0.18104248 -0.05129997 0.1574845 -0.02544276 0.15614392 -0.15061061 -0.0202819 -0.0046199663 0.10801129 0.13107625 -0.14586297 -0.04570348 0.09796801 -0.26197776 -0.15012589 -0.023652682 0.06365736 0.17631926 0.11542828 0.08232142 0.12445264 -0.08254776 -0.012027542 -0.1678381 -0.12186778 -0.06356381 0.029507987 -0.1466866 -0.095684625 -0.16881944 -0.04710479 0.053025324 -0.20161071
10 0.11626631 -0.03439595 0.147115 0.11149445 -0.16582642 0.05984763 -0.00017239622 -0.08107034 -0.085155606 0.1935126 0.14950816 -0.00834079 0.11497311 0.09497705 -0.004308637 -0.030357003 0.006456793 -0.028067965 -0.08193581 0.117151365 0.18036866 -0.08250704 -0.046351776 -0.000830238 0.17683841 0.21496257 -0.18028653 -0.068078354 0.19511473 0.027074747 0.089263074 -0.091617696 0.09571762 -0.012023928 0.04271362 -0.11185424 0.09110611 0.15511112 0.061908487 -0.12302897 -0.11670758 0.16887093 0.11809723 -0.022090942 0.13938817 0.14744088 0.02597171 0.05689371 0.11995331 0.04748268 -0.19546509 -0.10512395 -0.014395753 -0.10777428 -0.08208263 0.029173113 -0.0049056476 -0.06496589 0.16639078 -0.056929104 0.030751094 0.037743825 0.011638733 0.0013880964 -0.110602155 -0.017097028 0.09151544 -0.035257928 0.092363454 -0.14492351 -0.11247507 -0.17187947 -0.15811974 -0.028849976 0.06531828 0.14142713 -0.17937139 0.03523599 0.11989487 0.034833618 -0.031411953 0.051209297 -0.1007434 -0.038134303 0.1384737 0.059786335 0.09472307 -0.1683532 0.07471026 0.1330203 -0.10751532 0.14100079 0.0319111 -0.11546382 0.023173423 -0.17037223 -0.075777724 0.1624771 -0.03091219 0.15735516 -0.14449343 -0.015528188 0.018205553 0.11826212 0.14560829 -0.14460558 -0.014635358 0.08763155 -0.25195917 -0.1434357 -0.026530882 0.079287186 0.1783806 0.098006815 0.08737292 0.13099106 -0.072252244 -0.008613827 -0.18767013 -0.11691918 -0.06383274 0.034478813 -0.15382783 -0.08705122 -0.16959083 -0.059113134 0.03052978 -0.2130242
17 0.1666939 -0.10329798 0.16872248 0.10780346 -0.1795149 0.0314365 0.035656717 -0.06646013 -0.035419237 0.065798014 0.20521085 0.047597457 0.055266537 0.045282718 -0.048741102 0.004904736 -0.030135121 0.023743844 -0.10281555 0.14196731 0.20167173 -0.08660302 -0.09347487 -0.0807464 0.22301097 0.20514296 -0.14395425 -0.1093631 0.17291066 -0.029423581 0.09332361 -0.060267624 0.0836528 -0.03694777 -0.043830257 -0.060904797 0.06356159 0.05383297 -0.033952046 -0.039735664 -0.1389119 0.20104603 0.11497373 0.036163423 0.09339413 0.12732844 -0.055534594 0.05629958 0.16653372 -0.09390079 -0.12954263 0.041631613 -0.069539495 -0.034146164 0.0005483108 0.049446933 0.12534232 -0.011077348 0.20045733 -0.06628152 0.0027629784 0.023630893 0.03082566 -0.008094638 -0.1205548 -0.036519337 0.1427718 -0.023836043 0.12430875 -0.12672687 -0.053762924 -0.11408218 -0.16264935 -0.07924846 0.032852188 0.083097614 -0.20173998 0.022607354 0.115403496 0.07052841 -0.023654645 0.10729865 -0.049392633 -0.013369962 0.07432186 0.13377303 0.16209048 -0.17118198 0.017971497 0.18452579 -0.08172284 0.21623121 0.069402106 -0.15189254 0.1469255 -0.024916172 -0.1819484 0.16311048 -0.060522895 0.10344986 -0.0590703 0.028545886 0.1673707 0.11710635 0.22005211 -0.09915301 0.12714507 0.0048382655 -0.16807477 -0.11236595 -0.047303252 0.13987222 0.15396297 -0.043746255 0.093066104 0.18296899 -0.0014795943 0.011300469 -0.22774985 -0.051648274 -0.03671072 0.09442225 -0.1354399 -0.048520952 -0.12756987 -0.101296745 -0.11131428 -0.27917057
16 0.112684615 -0.03525206 0.14631617 0.109340325 -0.15464498 0.059923228 0.0005786646 -0.07048392 -0.0858575 0.18871234 0.1444418 -0.010273109 0.104697205 0.09777037 -0.0018024573 -0.0239784 0.007943527 -0.030328976 -0.07453747 0.11293246 0.16449654 -0.07209108 -0.04024167 0.0015975464 0.1621722 0.20088154 -0.17043158 -0.05350418 0.17920955 0.02855185 0.08173039 -0.084608436 0.08377824 -0.014459598 0.044890508 -0.107344404 0.08486597 0.14907691 0.062082674 -0.1120557 -0.10600786 0.15921059 0.10215128 -0.021017974 0.13065867 0.1385315 0.030931434 0.052741043 0.107759684 0.047570746 -0.1833428 -0.10219529 -0.007691577 -0.09430575 -0.07756924 0.02523988 -0.01272435 -0.063187346 0.1557743 -0.053449266 0.025762016 0.038314722 0.008138287 0.0058119167 -0.10934341 -0.008924067 0.08541335 -0.030905893 0.08688915 -0.13330355 -0.10558857 -0.15602861 -0.14366375 -0.022622192 0.06423483 0.12503713 -0.16727632 0.03355457 0.1147939 0.033489056 -0.032031413 0.03840471 -0.10112798 -0.035136104 0.1254544 0.058673266 0.0784071 -0.16027899 0.07184719 0.11767948 -0.10166981 0.1287106 0.030456131 -0.10343358 0.020005578 -0.16358809 -0.058504544 0.14842051 -0.023308728 0.1459873 -0.14103068 -0.01579852 0.013733229 0.10546149 0.13740072 -0.13204393 -0.024715716 0.08363478 -0.24318345 -0.13699251 -0.023232033 0.07163836 0.16699277 0.098924376 0.07368472 0.128607 -0.07390687 -0.008490538 -0.16671647 -0.11522358 -0.062154807 0.0364766 -0.14444853 -0.0877143 -0.15711133 -0.054838363 0.034564313 -0.19807857
22 0.12485392 -0.053368386 0.14988562 0.110995024 -0.16107853 0.055563673 0.0046669967 -0.07245665 -0.06908633 0.15732434 0.15408343 0.0070206095 0.09759205 0.07973313 -0.0135565065 -0.021412497 -0.0012057449 -0.015289014 -0.07966 0.12066934 0.17794827 -0.07748783 -0.059569042 -0.016588448 0.17674717 0.20561288 -0.16781345 -0.07581268 0.18249638 0.005978462 0.08251271 -0.08160521 0.09098899 -0.016988615 0.013396369 -0.0997413 0.08161301 0.12546925 0.038010698 -0.09677862 -0.12133977 0.16832435 0.11000507 -0.005916289 0.122158065 0.13939093 0.011902135 0.055122122 0.12534688 0.009228861 -0.17800783 -0.0659107 -0.027424056 -0.08433628 -0.057870686 0.031777974 0.027093017 -0.05257734 0.16798456 -0.056767114 0.024058148 0.029386722 0.023466794 -0.00035746605 -0.11098134 -0.021374974 0.1019431 -0.033821866 0.09881913 -0.13767593 -0.09259471 -0.15155838 -0.15479277 -0.0350885 0.05413789 0.11496748 -0.17785715 0.031253338 0.11518129 0.043402676 -0.02518186 0.06183204 -0.07927439 -0.034157816 0.119637325 0.07735382 0.106615126 -0.16313949 0.055088274 0.13475455 -0.09397585 0.15758872 0.043522142 -0.11936311 0.051091824 -0.12917636 -0.09562233 0.16388446 -0.036697593 0.13657936 -0.11617464 -0.004168332 0.05685694 0.10932906 0.16009742 -0.1275194 0.014009398 0.06357111 -0.21985161 -0.13216065 -0.030227972 0.09258004 0.16606346 0.060049914 0.09001156 0.13796113 -0.057328884 -0.00013857431 -0.18887888 -0.09746295 -0.05474176 0.04844842 -0.14321537 -0.07493915 -0.15027583 -0.05921581 -0.009351486 -0.22211961
19 0.122138076 -0.03150898 0.15207769 0.11768903 -0.16296236 0.06124145 -0.0009272072 -0.07758925 -0.09481505 0.21438994 0.14956057 -0.017180495 0.11846762 0.105514385 -0.00028464117 -0.026886074 0.017165862 -0.039799914 -0.082977295 0.11119909 0.17437696 -0.078090735 -0.045729186 0.004592109 0.16505001 0.2132516 -0.1784221 -0.055947453 0.19705649 0.03414902 0.08556014 -0.09170217 0.09083443 -0.019555084 0.054184705 -0.11531366 0.093784645 0.15654163 0.07386963 -0.12535304 -0.10917634 0.1580144 0.1103555 -0.025730407 0.14279917 0.1468904 0.034729265 0.06090688 0.11131234 0.059662264 -0.19654918 -0.112269245 -0.0071560424 -0.10199916 -0.08659853 0.020376898 -0.01681364 -0.06337488 0.15955853 -0.0549779 0.029303256 0.03647749 0.012101805 0.0038976814 -0.11165298 -0.010121262 0.078138694 -0.030491712 0.08977368 -0.14225312 -0.114799544 -0.16650246 -0.14819224 -0.016886288 0.074533254 0.13755426 -0.18386379 0.039232474 0.12046282 0.03883468 -0.038637772 0.041079883 -0.10891189 -0.034444295 0.13961509 0.061485477 0.08264375 -0.16749659 0.08184442 0.11627348 -0.10581824 0.13378967 0.02718447 -0.10650055 0.01095461 -0.17814623 -0.057217278 0.16330564 -0.026577936 0.15794413 -0.15254377 -0.020262675 0.006632105 0.10915771 0.14174531 -0.14761455 -0.03411933 0.093165755 -0.26280457 -0.14405712 -0.019722994 0.06471389 0.1771401 0.109713845 0.07979662 0.1317686 -0.07409101 -0.009171441 -0.17712879 -0.11874141 -0.06299657 0.033519886 -0.15615109 -0.09339812 -0.17160745 -0.048523758 0.045664705 -0.21173057
12 0.13013448 -0.06483071 0.15208241 0.10548204 -0.16017856 0.043164413 0.014722628 -0.07291828 -0.057770345 0.1281056 0.16750093 0.019146103 0.090985216 0.06757654 -0.024853665 -0.014316833 -0.00499616 -0.0035208259 -0.090510145 0.12883696 0.18305084 -0.08213036 -0.06449818 -0.03252393 0.19300376 0.2098253 -0.16720718 -0.08616543 0.1781867 0.001221414 0.08339517 -0.072853856 0.08852587 -0.026183154 0.0003101215 -0.08888895 0.07455502 0.10500685 0.017025884 -0.07804599 -0.12883238 0.17832126 0.11473355 0.003173259 0.119016066 0.13772327 -0.005922875 0.0573798 0.13525444 -0.019135132 -0.16298625 -0.036613744 -0.04016289 -0.073811516 -0.043460917 0.042062737 0.05303496 -0.039389335 0.17416233 -0.060248572 0.012748127 0.028277894 0.025335036 -0.0079010185 -0.10789595 -0.020699471 0.10896145 -0.027753374 0.10338346 -0.13459106 -0.08555013 -0.14720374 -0.1547937 -0.046520393 0.045931425 0.11130255 -0.18207175 0.029074991 0.11667411 0.055588122 -0.02870134 0.07385566 -0.07361447 -0.02360199 0.11177889 0.08919941 0.120376684 -0.16367935 0.045837123 0.14688659 -0.09521579 0.17006208 0.051883876 -0.12425287 0.075262986 -0.102400914 -0.1193061 0.16716032 -0.042807665 0.12890247 -0.09954548 0.0045595267 0.08323149 0.114592105 0.17746028 -0.120731644 0.04600535 0.044560518 -0.20390606 -0.124333315 -0.03158021 0.106645174 0.15899713 0.03161405 0.09194849 0.1531137 -0.042282008 0.003078594 -0.19615996 -0.0871712 -0.052225083 0.0596469 -0.14031094 -0.064499155 -0.14866528 -0.070003524 -0.032837547 -0.23666716
